0.4732716176948563 -0.07700790330323984 -0.6311035812985296 0.11569504699886698 -0.047903926925814744 0.3057556041018026 0.3511066334197866 0.6664183678010122 0.05541157734549309 -0.29058292368231575 -0.11327104709661877 0.21833268220332813 -0.4418044845544334 0.015771849018248005 -0.3847313731911554 -0.11338913329700977 0.020093077945107507 -0.036673969857657224 0.1605873684408863 0.42996746791431784 0.05043574758528072 0.10089969910116128 -0.08637684703285106 -0.3432021400940739 -0.36683841690869684 0.2247537832108788 -0.059368219671690474 -0.06451206536900143 0.18559824018415905 -0.20092935853623053 0.5946282453138485 0.2788104602538373 0.27274340940143726 0.4261789453947167 -0.23607979524318806 0.2798283509764765 0.4761686022536638 0.2132851832850544 -0.3479999718007397 -0.4484716225259378 -0.3777708858263478 0.26696787236471586 -0.24822082826289538 0.506305610894467 -0.26348732425935767 -0.12653584454389313 -0.5563181319139687 -0.3429749489259387 -0.0021936509129685464 0.6275173172727189 -0.018776687807836187 0.05117817208246688 0.2406524241614192 0.5945730644314067 -0.33702405198043284 0.4889098620688963 0.02330869887465176 -0.3343496653200631 -0.32823534396155085 -0.09685530500460184 0.02957604202837588 -0.4954165961478339 0.07243007068610742 0.23884758061606293 -0.015545968354693717 -0.3182828773633046 0.11939720562672362 -0.5272371235916091 -0.1761473413150037 0.3893498537110107 -0.27641274630082396 0.3907369370697459 0.22630060086139586 -0.08836729648552209 0.08098245191916012 0.5983508855761022 0.5818690459937574 0.07612720897721323 -0.25394364270527775 -0.16232989862649708 
-0.48965220381785546 0.26349807458729285 -0.03459211832711762 -0.08747117977915218 -0.4732881264070221 0.35146705887565916 0.0074968708674759904 -0.24381352111379015 -0.03822095572239376 -0.2544963849736823 0.422002967110264 -0.00866225126407527 -0.06571177210843351 0.11013572020848231 -0.41171338514857186 0.3667265149632062 -0.15720651961174006 -0.23049200235795733 -0.4768557519648624 0.05874865423727612 0.35320550303100856 -0.3150844882886295 0.19811146224002887 -0.21402310063424423 0.03199330438003845 -0.052037353774438334 0.2329400140643762 -0.2374962382413938 0.29626633842125216 0.4423760448490595 -0.14935041983159303 -0.21405350485645855 0.22999550009124833 -0.26794236816792305 0.2472015535377857 0.04107245528249072 0.3374643211493307 0.3536106836173885 0.44170894643191444 -0.24628339370749203 -0.4434332608736512 -0.024196845798158964 -0.2543389188007886 -0.14791348827781028 -0.31652608406249927 -0.14515864911756737 -0.3381420175888184 0.24995206731865005 -0.041519901631557755 0.10292939720646851 -0.34416604603175766 -0.09391370096314497 -0.29434600823444745 0.05194220362945493 -0.49376075170206735 0.41077634856691686 -0.2865075493360227 -0.16597452235642146 0.2095475554119371 0.22913576842035985 -0.3274521894390684 0.028231064113271104 -0.2930019439902193 -0.42223738302118724 -0.08187975252518968 -0.2883752976336902 -0.16431249136492973 -0.1426056465488295 -0.11139346910100381 -0.04385416689263862 -0.37434677954985895 -0.14798719880808295 -0.30133597721753225 -0.07598681831287264 -0.38275558979019175 -0.4852287275775313 -0.13730550770865926 0.3495933701374159 -0.3376238027424235 -0.43407315178031197 
-0.20253408570636885 0.6177382606989154 -0.49134086259050386 0.5388075555352999 0.8703936957592493 -0.36978011942173294 0.11583056637962497 0.13738534631738475 0.5124323332696626 -0.07095577689305105 -0.1419886536587024 -0.17173398034749796 -0.4199431598912409 0.022440047877835986 -0.12004880955365367 -0.27309402809546984 -0.7683352829759955 0.25502477098588433 0.09256230538663494 0.8237527400279875 0.11680943849490233 -0.46487965315467794 -0.30606781873690836 -0.5040231949994172 0.08104242729712363 0.16537912025327403 -0.4495883363192214 0.0491629632284529 -0.20519756299739617 -0.5775519339438263 0.5608989932963728 -0.4452382496740081 -0.008229474689382813 0.07245732406893612 -0.10823365013410445 0.3622585129089366 0.44679233621184594 0.15437819979137735 -0.22418272008699802 -0.4005067633849508 0.5971762038316992 -0.4892535805457639 0.15176650196576488 0.2449056515283434 -0.051891283088293355 -0.33796861932207484 -0.021862079555480016 0.0406391671960766 -0.10326429415247748 0.12034889863872963 0.2721736028764142 -0.5621929338258674 0.3423314967942622 -0.07560815217606257 -0.5001240754044384 0.5935860566900383 0.8798325099637797 0.27499208605776415 0.050826897415895536 0.683444874161059 0.16710622891692353 -0.8077198559431389 -0.4741289761192204 0.26435339330264296 0.24985974604313968 -0.3071032992629644 0.3535981397665206 -0.5178671774438013 -0.6153602218087175 -0.267795191560153 0.27964111989649526 -0.23890814758899762 -0.14625760560462542 -0.010187108440737934 -0.48083405943323954 0.21725371061273527 0.3683859419992094 0.8464330264995793 0.5544697790587659 -0.0967336662845351 
0.13303937384771836 0.31480857888319863 0.12162061507011018 0.14291872101022832 0.03130723148525673 0.21189460149464295 0.28223107334247205 -0.0914097987901767 0.16193365063272475 0.03764837264757579 0.06501854966533899 -0.28771648833033786 -0.04276455373361845 0.04079359912375194 -0.35308388857516426 0.39512963050073396 -0.3211043270976853 -0.10193112829447155 -0.010890414288482964 -0.03847597757997649 0.2881798631334278 0.31536685589745767 -0.4476635724186353 -0.3570248810848395 -0.263928289336159 0.10901239840845066 -0.4496246223058229 -0.27900862139587274 0.12493813928176639 -0.19691823549059356 0.2975240992424624 0.39037001148972084 -0.2739285091335102 -0.18702457206066436 -0.10093783081843437 -0.43769561238422533 -0.02213278782258971 -0.20906487726508502 -0.27233706668639673 -0.036155923896547565 -0.028270330812612845 0.2460291470078928 0.2342390990710978 -0.265405841425599 -0.3260915683496094 -0.3565309939230165 0.12203629884693766 0.1560075868990414 -0.5040133869527467 0.4581723331651218 -0.24146254873918996 0.4364765558824342 -0.2781540423385946 -0.13218214938010792 -0.1715493187906108 0.2724832265293433 0.5514954673866689 -0.02271901929596076 -0.1889238061014494 -0.08326698941110096 0.38028018253955814 -0.2753264314106373 0.416676555256321 0.1457190184790994 0.4285878441984089 -0.24491238764863404 0.3521784986168084 -0.4883234120955342 -0.1981725032565617 0.1185614380848932 0.16927875515454238 -0.22702585153813443 0.48639499364651617 -0.46643254517217864 -0.34206831145267164 -0.3803203159571779 0.4240697533994224 0.1199975935446445 -0.01857671775617725 -0.1390009291876039 
0.17025489313351042 0.13025845735950414 0.2607572482166647 -0.42097322903095225 0.4696887349005597 -0.4310176608314892 0.4185461470092476 0.2352601080178834 0.15961069468527794 -0.22053831756448025 0.2842916984016827 -0.025068052079763727 0.21246449521207442 -0.4763761775492756 0.3478886338032844 0.1316789248147582 0.12429203329707988 0.33227100822170996 0.13180023166805374 0.2446051037180309 -0.11710624499088636 0.4068849569316833 -0.023899524804088645 0.2175829941674456 0.2485774224532999 -0.17065448347134315 -0.2396060460000494 -0.1986859432053181 -0.2891936529799195 -0.2653136497499554 0.43338991110838937 0.22199364299429603 -0.1898959084539789 -0.277420634893518 -0.2713486851214389 -0.17826814707033584 0.42572409854562665 -0.40707637400389607 0.08805549610944059 0.030721239775281663 0.22261831497426343 -0.169688710882772 -0.45189320900040447 -0.12740871661967532 -0.2857753341195827 -0.14754330863635623 0.39741780594311105 0.42242565569848795 0.2630384938843321 0.30723072527992545 0.41201807474957003 0.4136822585669375 -0.04975473666404433 -0.017325578628078566 -0.17469371304713072 0.15464859421348867 0.43028809608764934 0.06552480285323443 -0.45346729451404677 0.4772772341766739 -0.25398215347772124 -0.4729086033546459 -0.24136578907849257 0.34644211195805885 -0.33946764752525665 0.40582646069632194 -0.2739001519311178 0.017470242088334635 0.1763291948159386 -0.36050325898147256 -0.4358787376844076 0.3112143770902407 -0.17181320267698164 -0.14615158484776936 -0.2846658673693323 -0.17160578253771352 -0.2461086309358559 0.27354755453346324 0.15833152431873615 0.25314775446419563 
-0.22897450515287898 0.41953688128676997 -0.36900755649897815 -0.015665071740304973 0.47135833343193334 -0.11140005846691822 -0.244857876514607 -0.43818749417268216 -0.23223900357955393 -0.21629414901619679 -0.4517581901638117 0.16661180021290314 -0.4638971189839762 -0.19372961476715356 -0.31434770901957576 -0.4444265871690872 -0.3028273733001959 0.15376890703030985 -0.1812380036804917 0.39893928736481227 -0.4392513741865023 -0.44733233815047685 0.41854341740688433 -0.0942267260322667 0.3212675059679986 -0.24036192899413103 -0.10622036316111182 0.0069652646768855455 0.3628167833334823 -0.17710769199418178 0.18854490514033964 0.1399647171529655 0.41179405820662496 0.24212070494742377 -0.3277664706770725 -0.16534492322436117 -0.3419834444375601 -0.08653892097293421 -0.11741769261074875 -0.09214495151171759 -0.3377946192395313 0.4154113349389694 -0.3613893316829111 0.04047444379029229 0.24828857867548454 -0.24852029627644426 0.05883427933444018 -0.06537000702308501 -0.3917148489826679 0.14679280392493538 0.31039443830048935 0.007764092395053716 -0.46917506912518564 -0.12995363909643257 0.26116514169200133 -0.1589396169182398 -8.286333932926953E-4 0.3372088155461744 -0.2349977493829037 0.17144623809690865 0.41625402376378196 -0.0456677211618384 0.018430207595793755 0.2497769175703163 0.34240338043160096 0.24269410864304553 0.266917272726453 -0.1719498290108689 -0.01953545533363287 -0.18950113563242887 0.16588886011863668 -0.14488830135231343 -0.44086229874926336 -0.3741847796901272 0.2633061108326888 0.2009480292758269 0.43517140823171235 -0.11534269891031076 0.3938087104327466 0.38977474311901594 
0.08312860389207652 0.6481199035400106 0.11747839489720946 0.42140418747966907 0.4399290487041907 -0.2964460929633129 0.11094798644487965 -0.1713134764380803 0.2431673906778708 0.36304558427711786 0.48097143342728044 -0.38840097737498624 -0.5152080334276425 -0.3713686725838637 0.46585172274031755 -0.030412188566360573 -0.1641574106340285 0.11267969978568491 -0.36748946673592264 0.25526254887584676 -0.20666737518995806 -0.2143749902529891 0.4146624291181263 0.16844517976142878 -0.4353079942960089 -0.048448744913695996 -0.1934988623578834 0.314304117250846 -0.46285029572827124 -0.18908949233832784 -0.08931337604973542 -0.21443854811450785 -0.29427253997120517 0.03348784974600084 -0.3233376152179747 0.34433202637541516 0.5130286972190697 -0.2908510929051532 0.3799850049315441 -0.15542571153714457 0.1918248012339808 0.42072484394353654 0.36922332754928316 -0.25511521389659936 0.18254736108942524 0.17208715797361507 -0.42525423663994216 0.014501251213031321 -0.2224951184484613 0.5104351697070412 0.46832203416696294 -0.5615354400720001 -0.2353117338339399 0.35891053452542315 -0.24496274185014963 0.16921845116466933 0.5896845613678777 -0.1332818855106508 -0.1542665249449044 0.3701213001555753 -0.1765161057187539 -0.5163723480338456 -0.15934566000629466 -0.06713934743486302 -0.1461096803829044 0.006189086862043382 -0.461870206985867 0.12830412774112618 -0.04541236821825042 -0.16435651663648684 0.12759640824286875 0.12371693489716054 0.21868488922597829 0.510494201908467 -0.020112345680955532 0.496522134628263 0.5430571430202388 0.10544973135408764 -0.10128811115157073 0.18513773838765746 
0.339753959087391 0.13170906023811554 -0.34015807695996453 -0.4331908035778337 0.3040551386064033 -0.3464465605060182 -0.01321940638714803 0.2585251065538974 0.40916593216058084 0.1519078068534998 -0.16157877861477254 -0.4581036936515549 0.16456376028246023 0.2534846569963846 0.38588796504547723 0.3638567390816957 0.23845708970800988 -0.2900955362100836 0.4733899287841024 0.41345093669209554 -0.06395456946625755 0.26585110834761894 -0.20848926265387974 -0.22254401112395195 0.05437605806305803 0.16399981269048927 0.24698779819924738 0.24803206642728676 -0.23031292593283575 0.4486266821768572 -0.1127077390781006 0.16193315120567947 -0.18423495437349222 0.2124743985757686 -0.4788885300429581 0.32498647278502435 -0.3700591677861732 0.03597545695400958 0.36814642424949895 0.11796788123295524 0.00597370721740784 -0.2725805485699404 -0.11379403301454756 0.42422650526522215 -0.5004744594331202 0.32002624253686873 -0.25232462237477665 0.2955150378287475 0.028444783591502345 -0.0439667918837538 -0.07961144169975064 -0.2043622102049287 0.10665780842096269 -0.014603380505512353 -0.2127619418067773 0.397061132980688 -0.268629884435626 0.09621056966220676 -0.08112128179801624 -0.4032871652806767 0.14534289113042956 -0.26263184435615694 -0.007044024352808851 0.4875633602332203 -0.304663191374398 0.4877548077174017 -0.3897342836619813 -0.2892449419855892 0.4065300924111484 0.17810887088522237 -0.12158355470423851 0.2972451524144431 0.33483712005369415 -0.10169836305757855 0.1395708253241422 0.4937100331623609 0.37186463158973765 -0.08438640814701086 -0.20324129543517294 0.39662210277779325 
-0.06792601351820414 -0.3902650077980359 -0.18950483707792282 -0.2751393184521544 0.046270359748501334 0.4042093834473237 -0.45456203012789975 0.4920011267533177 0.10660857334180146 0.3774875136172711 0.4001472959403338 -0.19643969824749372 0.2685311802633489 0.06117921238917627 0.14401708203505428 0.19334980860689346 0.42548995637759424 0.40929083270746514 0.028590020970740048 0.06096074785573339 -0.39067481235131996 0.4997220048737028 0.362262446993092 0.0034348854903428374 0.09798330755593643 -0.08711589331068811 -0.13193142041046996 -0.3954218970861836 -0.36185251872441354 0.05537195034230172 -0.02019016220614752 0.3878493937815616 -0.02950837956550704 -0.07707646663062402 0.21164097443764213 0.18599945839517515 0.27868403481419857 -0.07882348165962921 -0.1326596785307236 0.14186355869485928 0.27381440375571403 0.403740228362165 -0.33257003660329715 -0.08209904000344063 0.3727763394868039 -0.47402008597091305 0.2955509992890579 0.46705403940119006 -0.16530069459875524 -0.13453095160530731 0.49908021397674474 -0.1188988615305479 -0.22366339928146725 0.010232147170529058 0.12297835269718685 0.4359163065011992 -0.29616615493058723 -0.018938823699755886 0.3820086969787838 -0.07624268253079053 -0.4267888269853269 -0.08110471856831114 -0.24712178802416482 -0.23262841751662489 0.41236198731293866 -0.05681131213578723 0.09530917512400995 0.21070430796739661 0.23617651579491747 0.4686050316244594 0.0016764661258848812 0.09191547062063878 0.30771452287939105 -0.45197444663218805 -0.08196372892306551 0.3104748583481921 -0.1831169130239696 0.00928908850369557 0.27781898181689596 0.1314672876356278 
-0.3353528056494236 0.21951471396355823 -0.22534683029353278 -0.1236759035448085 -0.5274717493333985 -0.46606902116461807 -0.27486118350778593 0.4407922504792463 -0.372477323189667 -0.35623694541984174 0.2201558457841441 0.2799760623780761 0.11439910757348201 0.37412039344954795 0.12830250466427665 -0.16741046227793854 -0.018729064765646248 0.2327115777159819 0.35782410699707934 -0.5097766365646764 0.36514950218941816 0.3819614313214155 0.07837642317944982 0.07402164344568318 0.28040338766324974 0.19518576413283353 0.43117514506965365 -0.35552993149662987 0.002060266848541274 0.3325797839354506 0.0141051159258842 0.2784044975355138 0.48753931808966644 -0.21769054266434387 0.18687634712154516 0.26173130640545894 0.14452181907283765 0.21112360114634487 -0.010673303014401487 -0.40479881798747697 0.13608219007905656 0.45532477426711093 -0.3317263067348429 -0.30373596432247413 0.3939198492144019 -0.21915679529197288 -0.3504053712421647 -0.08542294071847417 0.22539168356566044 -0.21200135470374362 0.08720715386849373 0.4279590095262301 0.42360617160714564 -0.4993590442722593 -0.24194079624022888 0.34105524270911214 -0.5172047566392254 -0.03639364201409169 -0.4401562079631187 0.1017795542654712 -0.4951143075955406 -0.34345702099900466 0.1253073202841852 0.07465341416430364 -0.435709252091825 0.06619770191202083 -0.31674914442696545 0.2609547082502705 -0.15076866438058517 0.18339399741622045 0.4288932525605352 0.04928908911540643 -0.00864264656476386 -0.2194532052730624 0.3420944091544709 0.4096808963091166 -0.47856014213632136 0.028721365383027796 0.2549760279070153 -0.1168693366998704 
0.3269196933888664 0.3601116842548065 0.11829427374132881 -0.03791390298955839 0.16943833011809878 -0.401920514291343 0.20397360717002855 -0.4204194131230971 0.07274968323673409 0.3592380429880745 0.268734865140203 -0.11220382012196195 -0.46591601396517607 0.17219149218729865 0.4404692530315765 0.0069096257923419 0.4140118732350772 -0.02211927175329111 -0.07226225485551811 -0.17188599954431627 -0.3732931761961964 -0.35865318753765396 -0.3134980981714965 0.34728157889308453 -0.2759775177410613 0.052754195087099054 0.2528384428727339 -0.25110950692233697 -0.22807749757215295 -0.09953226211217764 0.06228547681135875 -0.16142835766456565 -0.02970718969879958 -0.3340899731628257 -0.2769580453961601 0.35864081507231543 0.13925873340450676 -0.20198704513629429 0.23377354059107458 -0.2381458960924456 -0.4504114401375816 0.28304413880724494 0.4647432310476128 -0.19391708676731548 -0.4372763415341463 0.04287754721745486 0.1994675954013489 0.15040041041302588 0.1977162472935597 -0.33509626888068234 -0.37926373496032184 -0.18696526016229034 0.05228024092229505 -0.003291009000382001 0.3216538024237846 -0.0922783178063455 -0.016569939415918757 0.047959970150332015 0.02811922923568792 -0.4676993004357034 -0.4523890701352066 0.4293859660094696 -0.4901214618722905 0.2506125482963189 -0.46342650502943883 0.3373311187086972 -0.28384783868483127 -0.3889785890082747 -0.2318111646805092 -0.35650760595080583 -0.2668044377009825 -0.32407777152049644 0.04107522888831601 0.2881682771813 0.006879134597244465 0.3881827045499306 0.24041790986114245 -0.4839515317731821 0.21261622592608714 -0.17806306382539486 
-0.379041384027402 -0.09411266933565758 0.2204682974306356 0.13336499803372676 -0.20232561496553203 0.39264198888846225 -0.040859483670646915 -0.032489400098528895 0.13437535664134936 -0.40614158717288995 0.2721986574116459 -0.24434612022253033 0.2233550090309781 -0.09189430635145338 -0.43484375877815273 0.042664945877580324 -0.4434235371965332 -0.2683736113142106 -0.32231720176524453 0.43233419409816004 -0.2598297884160983 0.08845584509361677 0.35542093208527925 0.35764066132515615 0.41246875531320143 -0.28079955017015923 -0.28099136081537884 0.030972065849506045 -0.44885771023061427 0.3794986193092367 0.3287398840423778 0.4633087934873945 -0.025029428251300678 -0.3027113865565266 -0.18482714637735312 0.32710624253046755 -0.3098831473753779 0.4378047500277495 -0.47586425825313644 -0.18431428718817827 0.16953329817964755 0.44171595055111545 0.35151262157003 0.3505026439707482 -0.21298218730554 -0.18602820291879416 -0.30658796556876317 0.17822493071666848 0.40928937387294245 0.17137544661106827 0.49128439780369276 0.39168062709943136 -0.4221422043408553 -0.11932460329201329 0.4401868488168838 -0.06366194622634613 -0.1974277347782439 0.25489335814837905 -0.26177454323029836 0.4713822473574806 0.24625004958682736 -0.37287823635580675 0.21646285775918833 -0.2537500624574064 0.4580855230323665 0.05319675013182797 0.2720074489363322 0.3420421272363569 -0.08069226350569149 0.17292710548088924 -0.18750705288700598 0.19217077629357668 -0.1820490148704227 0.39028786715326724 0.32315470076225106 0.2884353324927559 -0.0961068422008811 0.13150285350256052 0.2454665306636744 0.38958891972125703 
0.25331498864742397 0.3859815988056254 0.11273322934425678 0.3160980721561471 -0.5007782220870715 0.1667486035801571 0.1909048748497581 -0.3096292838379195 0.3778136719343329 -0.333959719871553 0.09747747625975603 -0.4955467086834658 0.48324568362931974 0.3699623390805802 0.320156335694259 -0.041100651984917004 -0.25234404585458753 0.09807854882525992 -0.36879412962098346 -0.44887939999619425 -0.48838952214457965 0.31036698930969525 0.289285502394808 -0.008560897889281736 -0.06413340162395907 -0.3137724243824678 0.1532572282457034 -0.07473959122093556 0.20648350223193504 -0.10425561940836131 0.07720161827785776 0.1739872218942688 0.24188087666338848 0.23666207671121395 -0.4277319792058197 -0.04253193032016454 -0.46545445041685085 0.3480687194399081 0.08766066855756538 0.37515586403391543 0.34984832092936075 -0.16509814861262817 -0.4407312681179842 -0.0640636129050322 -0.2559787679951705 0.008724450352986888 0.13142119731435148 -0.3795312529687368 -0.19388613925461126 0.38107412432161886 -0.24701269810385354 0.06281554596755567 0.057545947808666564 -0.28457207302894466 0.13652648254231153 0.18954754971062163 0.13181319616400938 -0.3513561082157517 0.15792827186432762 -0.4089680120171658 -0.18219732427837357 -0.02272221378379185 0.4211477065343176 0.038210933480945196 -0.08149104141690135 -0.3925507928952181 0.27258655987436653 -0.1189857132888962 -0.17331729532748635 0.18705544309488648 -0.40140905215641415 -0.2706806674675666 0.19908464241112536 0.0024017436901342423 -0.3134108335894593 -0.15851571056473457 -0.009330082258605989 -0.34578337911074297 -0.37600216393722924 0.35663893507325817 
-0.10316705430616878 0.3701388727023989 0.2966840049171953 0.1376330096517422 -0.4344951298538575 0.13606082065585476 -0.39183393664910404 -0.0681989602439028 -0.41497768833291987 -0.4566541300477658 -0.2940435298265301 0.4715180181089966 0.18264201517740053 0.1430740252678252 -0.07579973688268939 0.0017416513609059003 -0.0049248557538432765 -0.3184883576084454 -0.5009811152463489 -0.4843062101421882 0.325563619181931 0.1491196724547719 0.09787023589355073 0.3524161416861058 0.1962944299863699 0.33245427040355285 0.25721819641102495 -0.05081583191586537 0.1330672359975334 -0.16600217710271406 -0.015618277232591161 0.06409116330942492 0.23980683612981535 -0.2177875278964786 0.5017996365693089 0.22727057961277095 0.22051218341159726 0.21880921724999197 0.34526911498784685 0.5308578930027614 -0.4862424636680056 -0.09696700054939314 0.3709845455818225 -0.567708606874777 -0.01620256812871121 0.305789402132603 0.3466311505344549 0.3511494781587786 0.13768021157309152 0.2387984317855634 0.14636029915726542 0.1301017480529284 0.36924628658202213 0.003720206655726801 -0.06657212456292849 -0.3584903731977317 0.1060840003077629 -0.5746240891330946 -0.49853375121894433 -0.558456007813657 -0.4766189862348916 0.2290823013087075 -0.02246699560364953 0.05701258755668485 -0.18774385721536416 -0.4871542960512187 0.1221193706356012 -0.2548389275674513 -0.048473785499508676 -0.3966064284548296 -0.36427241358909573 -0.13099475406773806 -0.11752001712268592 0.46247911788377927 -0.3337012184331583 0.0521913783121529 -0.5482216934064015 0.1142826994443149 0.292649882038402 -0.35580567119355616 
0.35447804659533383 -0.11223753152561296 -0.1146885017500733 0.19850497119761915 0.2937141232658496 -0.04778228382726655 0.07667784914618683 -0.4421851951768258 -0.3569185979374264 0.06112106164305714 -0.2819628484672247 0.021577384712019056 0.08079311147282717 0.2054297763560092 0.37132127023145606 0.0861435948968817 0.3641182602281507 0.27170439175667055 -0.1929163885289963 0.26726065582474035 -0.3692637733325429 -0.34946416654878165 0.12445348402311113 -0.24368625098031885 -0.04049067187465366 0.25140249579148427 -0.13617038790676192 0.4629224007515141 0.43405924574332455 -0.016080745161810225 -0.3664247909841072 -0.28189222008959847 0.26108423533806446 -0.15621749736791407 0.2670838803421711 -0.09998417851053445 0.15178963884493465 -0.012635620136858268 -0.40460240792763685 0.10854326302465027 -0.7311365742863064 0.25385879993155025 0.30034259835766874 -0.23740602404907862 0.3685675171285387 -0.1909590612735049 0.04617519625841345 -0.06471626495033396 0.6457858262994005 0.42323521394785635 0.0028157789019802406 0.3625078438364392 -0.4507412153070396 -0.02653111306172126 -0.009093735880327369 0.5051712116121131 0.47294880724205945 -0.37754025652638323 -0.0036786138386771636 0.2861489318465656 0.03990640321835831 0.398953025268492 -0.34257808513723725 -0.4007421705757557 -0.021063983699485082 -0.34857942963646227 0.26260066071527294 0.022100804754778835 -0.13774707803513656 0.20953565559246837 -0.2628724149508658 -0.39171558399908907 -0.4113376442086768 -0.09249782374358399 0.007693780854009344 -0.1661054483917278 0.004870082375411589 -0.18555191104454558 -0.049317191975663206 -0.43138168538141697 
-0.24686403686338493 -0.3243812141243502 -0.025942810575583033 0.27867986588560834 -0.37935268655648624 0.312148204642696 -0.013566875853029396 -0.11379127038326353 -0.5234160696061256 0.3098160492042942 -0.08148190182205138 0.17951719894937476 -0.23225114659071727 -0.002523607802180553 0.16429238142241137 -0.26702347516853897 -0.07335739422930933 0.35750551889373333 0.11842994690594946 0.04160844016084475 -0.10793633811710904 -0.3399750559147339 -0.11798066818374565 -0.40987339515700505 0.27463739939455495 0.1268025885983302 0.07245737144678437 0.25398774827033654 0.08322500836012585 0.2859008327863703 0.09119920272383326 -0.3515297466013034 0.09002166207035972 0.1979435029195267 0.2757166696098517 -0.04758740439305505 -0.05977686586950658 0.26367457843239545 -0.43530540849778837 0.16442644982168075 -0.41932714231385027 0.45084179845422634 -0.4181327653039235 -0.2591567600940545 0.1904660502153534 -0.150581616791375 0.2902684163263862 -0.16430702345112735 -0.1867526349464914 -0.10794708170961881 0.27303803063830134 -0.16646647049771765 -0.12261641035007907 -0.3663487488502832 0.21998046536331686 -0.4896802681041265 0.13568682389392614 -0.20283080578848536 -0.22223917929761364 -0.10072648449742116 -0.3885550160049457 0.07608844874321176 0.26165413128149917 -0.2956139805092751 -0.0841437233651779 0.20700246919002221 -0.41446326490453766 0.18422580377129472 0.4404718160067926 0.12503444372096045 -0.2681919234199519 0.10038699943453573 -0.13594648948185173 -0.23645924280481687 0.5138569592338048 -0.36612637686076244 -0.3836969391035102 0.08517212745941703 -0.12372324470951518 -0.281326081114138 
-0.701213292126893 -0.3382565339539599 0.3294912735128397 -0.6633001221789592 -0.6912170802822116 -0.20912582201640487 0.4335241897980719 -0.7803953681835715 0.15966891224619503 -0.24428035139672166 0.30278578577122495 -0.2464592148003461 0.3673239787144576 0.5025233395541109 -0.38028933913991825 0.06238622516820042 0.5154710524294978 0.25121595481404513 -0.4207164382646972 -0.4288696197928969 0.6811769236551461 0.11968863109180584 -0.07559221551835535 0.059845094495065365 0.20967162718612015 0.3176471570189497 0.3981213635382556 -0.3273989774630998 0.5489087181764813 0.5850097044306345 -0.30565955103825565 0.47447199300701376 -0.18523169734335668 0.3853490107054403 0.23673356484575275 0.19066473823219232 -0.08802793504912665 0.16826738703813454 -0.10730190524532494 0.5072674376015092 -0.3364075844833788 0.21644308033044404 -0.1528034540737733 -0.033088041960701614 -0.05166867264571409 -0.3509012555730199 0.23555174424426442 0.1481163730411383 0.467254173991065 -0.407704829113593 -0.5427612535335624 0.25380108074196156 0.15129093071728134 -0.30873864475622986 0.044984548188703406 -0.4541330073531862 -0.655322133612555 0.08408298677588336 -0.4320586568267921 -0.8171018086139108 -0.020628984605696184 0.938727587594274 0.1019998521067982 -0.15744710546779514 0.3882067938152468 -0.08758239881461745 -0.03089761937912269 -0.2426951292068658 0.5738850212121049 -0.4532215381192686 -0.495448271214406 0.14116069502229014 -0.37126585351998254 -0.27574900775157984 0.5395501766023383 -0.8496756572523197 -0.4543988373463551 0.04524225741476642 -0.7651072350918405 -0.12351049686619874 
0.21238821535261335 -0.35208336175464955 -0.12212935732355042 0.3072797891719428 0.3168440405520745 -0.19520628815277932 0.029107058494473544 0.002063615407114059 0.3321299840783268 -0.2191194110188805 0.26063212390294344 -0.3883506390550208 -0.33106402121230794 0.3969449776894176 -0.2634995689305596 -0.3998842523708047 0.33480789381373166 0.47181541236649255 -0.3702500052822329 -0.13546547194934438 -0.21880184867920718 -0.16785915479257874 -0.35373610975801495 0.327277754618848 -0.1915212735719797 0.07379220220173592 0.06639459399111934 -0.34808624243194397 0.2731187524074342 0.29770023215628566 0.3243269405935194 -0.19726574470147712 0.12275065312771598 0.37791050787415376 0.22736302315732163 -0.20153694008288447 -0.016197011835354793 -0.4283602192864653 0.1714008107487853 0.17952460791108754 -0.364233525715744 0.4478832650084295 0.17555746918663995 0.0778909604819694 -0.381956453619452 0.17263856723784346 0.05571261080511058 -0.18306094593449374 -0.24151334138187194 0.17022824879432913 -0.13253156215012293 0.1273203077209 -0.4295951785323199 0.0527656650163235 -0.4071384891966545 -0.10714642676051192 0.31202579548460996 0.4979654940372805 0.07032241372940448 0.3733310701408632 0.008329613044081911 0.4529693515098609 0.45069017677830786 0.4099946261079323 -0.10408186737977933 -0.37113852674501147 -0.2946273648997847 0.036460996345741556 -0.4799895223907325 -0.22478617700225004 0.3204448579169152 0.2568320376297929 0.23103817959438744 -0.39294445249735876 -0.07107238543905496 0.4779065365471137 -0.07111580213203011 -0.4005601655560625 0.45860918430492165 0.255589313984939 
-0.3023480210912241 0.15498466570578134 0.3616631215728174 0.5315691856856473 0.18721394590738413 0.20962546868437157 -0.08366674754544177 0.4332665953479762 0.32238204581864915 0.28777892148089906 -0.2833327126992993 0.2829674145053488 -0.11496996611762686 0.18437614594041532 0.04533220958152369 0.48877153081622193 0.39113104955296374 0.11803917135546192 0.41396046944487624 0.3438686556836336 0.3066067791695014 -0.028138070406721158 0.18381337395515812 -0.49632780746624744 0.41824923379824425 -0.3195615158176993 -0.02294282381929864 -0.1429078606779303 0.0048289236851435735 -0.2915480896964202 0.1223657234499827 -0.4997484171681717 -0.09378818564596723 -0.2570038858840689 0.07861460526276398 -0.12572881827884078 0.17730946917824533 0.2753168260940253 -0.2506150250262844 -0.5002352037952973 -0.0031658609348028557 0.3451451198410176 -0.45532414719183706 -0.43659214496654136 -0.36962920953866046 0.4477695750685957 -0.4045553114682031 -0.318709347750246 0.11464214022016588 -0.07026832645560539 -0.0272467768171342 -0.3495315943287677 0.2687171696627884 0.1181701241956911 0.020352117299159783 0.3492167630361591 -0.1811009482345511 -0.1891771268667711 0.18711759216204762 0.06521670352776372 -0.16853870390601056 0.31914987595178923 0.3105301935692318 -0.0017403468449222993 0.4976164179354612 0.04473744967116093 0.24796793315386031 0.39646113880284 -0.23094551422263934 0.2622013568343314 0.1644712004954489 -0.42735143065715736 -0.15292414252702902 0.10527595192143133 0.3354454752159456 -0.4073272470000793 -0.08501082674958105 0.34829685626164536 -0.15306004633312328 -0.17765129316084438 
-0.12404855879531916 -0.39514548132230826 0.009175184575711011 -0.4442038881730267 0.36531780326710817 -0.14639277520369154 -0.44485894114205166 0.10209461628804022 -0.4205247739407557 0.20295935736418375 -0.18020410764825295 0.29966093938105925 0.4084412041310818 -0.2343078552100958 -0.1313803485242095 -0.047553936669240085 -0.21122844097313362 0.03372885281550734 -0.24952185074151714 -0.23348855463908622 -0.1336728169071734 0.1557974591540538 0.0746253409396246 -0.2910001047871657 -0.36613536599349433 0.33767101281614337 -0.0800762943748349 -0.3576535216246079 0.1552763453667117 0.13621497202478897 0.3611179520784256 -0.1331467180844082 -0.20031616504380975 0.01916836834521852 -0.5178617556932844 -0.1300311415547186 -0.45977833780743776 -0.3140246845697569 0.48115929408181624 0.3710533782890401 -0.12023507985001726 0.48917705127783756 -0.26832160011801076 0.3165690291964501 -0.35018882154801917 -0.030689813704058187 -0.4103120505020699 0.15559947618581507 -0.4998159548736883 0.36017449737177876 -0.20572111793785539 -0.32605828782191215 -0.46135066427316307 0.4467948050664122 0.2809269123451597 -0.1358059897079188 0.015403357005391019 0.12854010818735054 -0.3932208746899572 0.2316330951933198 -0.2707095692359128 -0.4784811474296396 0.13924377821152428 -0.1550032277762371 0.03353919485997037 0.20173867233114914 0.3191876825764221 0.09325053295827139 0.31368511482693645 -0.4858123003898888 -0.24580295527595925 -0.4043255144344563 -0.370586987877445 -0.4701018503843456 0.1479608142237225 -0.13183430140797292 0.40889089159603487 -0.24357691503248877 0.2861466299374487 -0.4260117624879456 
0.37880307037013256 0.41016345564307455 0.4752435074942875 0.10269821735200937 0.11664628051189856 -0.48287210148815135 0.28552584439924344 -0.22995796757368248 0.14101983492510145 0.14354207186881082 -0.3339713717464178 -0.49490465919615245 -0.17050424327301078 -0.06575037177939348 0.226402607767276 0.3768661225930589 -0.18449381274637808 0.07123501988641254 0.02213139238510767 0.28078720131963036 -0.01768549860027162 0.055139760007688214 -0.4109089647095026 0.32424287778016136 -0.04053786537795318 -0.19271301542914984 -0.18556860055506988 -0.40510304406207515 -0.5019902291734031 0.27608712960620196 -0.3398542841671156 0.45702280596089145 0.46662954725655675 0.36432815256395384 -0.0024761366582649793 0.1845557263484098 0.13527512019597757 -0.17102755753864038 0.014411716242803409 0.42758951134544304 0.012472262698993736 0.15984036227547152 0.3971986881622471 -0.3130301005089413 -0.22275592341202663 0.029794241192634647 -0.12517547265997822 0.26436010544544103 -0.3441349005063956 0.09461435814320247 0.4099241381454447 0.07839787912788777 0.2154438044435148 0.3362094958605255 -0.46207103073011396 0.4422093624303716 -0.16487254914093355 0.24373961469985417 0.4641720462908742 0.4884853660586436 -0.22310835197225232 0.11131653041418439 -0.10229005956998657 0.3700616900045696 -0.32980572077216935 -0.09609295906764681 -0.24800080495740762 -0.432312039617508 -0.1791674670493712 -0.3021723595139827 0.34868368413698014 -0.49607054969666353 0.387663322904177 -0.04712013058484265 0.01808850554613434 -0.1188136682197119 0.1230939292979966 0.08418648948936112 0.2335092256121032 0.35700055128408315 
0.3285788920515115 -0.11795261638323747 0.22490233517338373 -0.31744055743632915 0.5152428774733636 0.38054926877907685 -0.4306124387797358 0.4987078607467989 0.08563216333473331 -0.027336318072624155 -0.3378804286986284 -0.5141020912172432 0.35600905662425536 -0.18246589253423423 0.4257426906895148 -0.15685088541150496 0.08268079332853528 0.43513568525202084 -0.08498050571832318 0.6233478232989345 -0.5169423988667082 -0.18969788196164092 0.0688047515882391 0.11325037204635292 0.2617226225485064 0.031545630228029316 -0.07081371396520326 -0.16396602740127186 -0.06342930762411206 -0.4663176749563954 0.06868469761420914 -0.4177813443168994 -0.3358636151834108 0.12986303231729343 0.03359806546395956 0.03060856932848655 0.330056871916532 0.1385249131537629 0.06243380535498057 0.09246601739118603 -0.08469414393449924 0.17339855836722962 0.4245514798910635 0.20215265354670986 0.08954600281261188 0.10875700191453536 -0.24129516415373115 0.31077516831236773 -0.09148944643158606 -0.2085345692574708 0.3701111279486177 -0.11034691382487496 -0.14977435070655898 0.0020966446050924158 0.20820378497386732 0.2637858110619846 0.6745575307180971 0.11690124844424013 -0.08108255220931398 0.504665034291624 -0.2124586727432632 0.10703696691914655 0.08332106332421378 -0.1950904899137787 0.38474409871568865 -0.201207244599475 -0.3818399782734777 0.33433386533844334 0.2052981361496638 0.048759396519908675 -0.19517985042283834 -0.12908104066383205 0.4730258474057668 0.64733101413539 -0.17678498199365852 -0.02644208183316012 -0.2328873450848891 0.040102070966597174 -0.08688384651078801 -0.3344985810277877 
0.24852666808055196 0.056135791650811374 0.1956212128814181 -0.3607986156967149 0.3408898208941725 0.24260300432273976 0.2572417467333156 0.06522837463695452 -0.030158030108190178 0.2670871920174509 -0.39945435659873313 -0.2779146950010654 0.23488245054564655 0.19585261759557548 -0.28363973472131804 0.4042115596506273 0.5045188905530208 -0.14138655102636608 -0.2546299093949406 -0.425889302870347 -0.4300762345196454 -0.1596024071380211 -0.18284116829058272 -0.141752208375791 0.40964144493608884 0.20669371221853056 -0.32621194156374383 -0.17249736509765612 -0.32686329208301307 -0.3703107420118947 0.29401513885612424 0.00319996540564627 0.28298005407719384 0.16647036985803157 -0.1813892476037929 -0.11365731255132953 0.11421712637911821 0.3875283855307947 -0.2585092214665778 0.10270218099709923 -0.19232604283065355 -0.2312283602396381 0.20180129733665472 0.39905391981210375 0.22782672650411218 0.08452174837787542 0.06015686298306295 0.2594813291419326 0.1868209607846328 -0.31587668893354404 0.07948770967319382 0.04924647649949354 0.05117337985664209 0.016041075867008384 -0.38284851086877136 0.002960296085662184 0.0783236850876354 0.30255615349762 0.08610181404482188 0.0921827035441835 -0.4884230453487302 -0.39895019172581103 0.06319222402251654 0.3796231264090372 0.19517097124571553 0.4115675609772064 -0.27385845133107994 0.4958959239744375 0.42706688608190274 -0.08145144775059045 -0.4276203903119338 -0.4712773066010057 -0.22710763459399771 -0.4628740673168932 -0.26789149568991383 -0.12933480875090947 -0.4876760401465755 0.21708756482190064 0.25069222564878557 0.26965424642796704 
-0.16662873508089945 0.020476957088684557 0.4127230019809404 -0.017942447935274834 -0.21871485666212856 0.38685597997376614 0.2599430909802317 -0.5660686907247091 -0.23511093909255948 -0.023547284968802203 -0.33276555276011155 -0.2718265419880279 0.438474204856501 0.23076789831895944 0.07981495254479003 -0.44153873811283884 -0.18108298348580765 -0.13806418303715165 -0.3295868246296821 0.2108801058719139 0.5347958256268988 0.3678033087358685 -0.1163470149893964 0.04734423831722713 0.29669378878858527 -0.2961751875697511 0.020224243814138825 0.13530734140577005 0.34092182292315487 0.2495454207297083 -0.5670484931475094 -0.0594421451524322 0.0914967939210735 -0.11756353217266018 -0.06888914948592083 -0.48801714192989687 -0.061850692375118456 0.44016152870625186 0.30252216031271584 -0.3771953956675654 0.27257578719589204 0.5023201848090458 0.3538268529482665 -0.03802596377152595 0.1528829677241099 -0.2910525549321809 -0.01810094194754846 0.17932071822502893 -0.3655141152267892 -0.40049554853598346 -0.5574110223056999 0.15102202290666586 0.5100702917011335 -0.08111200867521695 0.44209634232946443 -0.16714397841810277 -0.6359368361771475 0.057300009592683554 0.14143738225024086 -0.22382904333509498 0.09611519142425662 0.12485701606780648 0.3761949029132703 -0.3381951012127516 -0.3995740328177322 0.34820917321110906 -0.4220828058582442 -0.3637221835434836 0.3466756680794372 -0.33513255264862557 0.33046673567701845 -0.30334052176623044 -0.09215378432624109 0.10059369917166734 0.396762526842294 -0.3113011454537481 0.28026338944922913 -0.13150159598068484 -0.39865746006270736 0.4574723095462333 
-0.6611097032616747 -0.045987903705796515 -0.04439796150365008 -0.2884385601582684 -0.320286962947753 -0.05203370482457153 -0.31704518180159724 -0.7506132765743107 0.14478947046414517 0.06076993655648805 0.25446987670082327 0.5291172430505386 -0.02604814266700725 0.4459276423703045 -0.3933694024360553 0.48226898634433496 0.6316422568082198 -0.05420887875111103 -0.3390911259375122 -0.8293400746007068 0.43208488348773 -0.3491324102894627 -0.08761909367497245 -0.2899942130253866 -0.11557078116145764 -0.21112086570481675 -0.19715637103450195 0.15793369485368908 0.007516567827820725 0.6192682656985297 -0.22686052947160795 0.5716582177650206 -0.19442430289817839 -0.18780025142841503 0.35264609622239457 -0.275984334383703 0.006472902572213973 -0.35430478387990755 -0.24958980035692097 0.06121070369875137 -0.5348707755987722 0.12490307932626521 -0.4319986047490923 -0.03140306328888802 0.647982224133469 0.36789298016827904 -0.12887696661407114 0.5951998444139492 0.29233637900983234 -0.12513957149045535 -0.5595647488283472 0.5602112226136036 -0.3137381564469468 -0.750157357099076 0.5557055887218566 0.06127088066728772 -0.09420051006071102 -0.3644138787100247 0.04071960156557074 -0.6183239605757781 0.038500840953146424 0.799867292439801 0.4025181998205817 -0.20519676042479298 -0.15019279163810237 -0.06351991488591381 -0.2840382117389762 0.2846417504135382 0.16471486257290352 -0.25784318077334073 -0.6365003287970218 -0.05404817860375517 -0.2933321666535121 -0.900713334774564 0.4830149691927372 -0.033725000389290626 -0.8873852402315642 -0.6603213113876356 -0.683106064291699 0.5168450561217811 
0.4117052462770105 0.7790188455454732 -0.37896271010928784 0.4998775833819374 0.7671274434103417 -4.637695545486203E-4 0.3628644703484119 0.49214936682927796 0.08450278866679604 -0.25356526330755025 0.12087186904076555 -0.2538437579016382 0.08036966375050225 -0.8005943309233694 -0.10423765442679417 -0.16967209538922048 -0.4095505222226866 -0.22363076174316332 0.13518254976338004 -0.10936350927557037 -0.29928493127375266 -0.4068200407316411 -0.40545229439339225 -0.5366362464990023 0.39277929180178767 0.4121594891118838 -0.08848783079768836 0.04065014731133796 -0.14652395900739187 -0.386885168712089 0.13636925920017356 0.15722497815988967 -0.33450609962327515 -0.5424990156182614 0.2294425536652014 0.10725477286516304 0.3223061737308824 -0.43597164382033454 -0.3333487879524994 -0.22397669045780164 -0.2258493936520111 0.19349418724609554 -0.2287688177405268 0.4224759936236007 -0.4255587982740406 0.3260517631002632 0.1340402926788075 -0.5918069571518082 -0.6608798944682028 0.626358614389542 0.41888252704716394 -0.09966498264696638 -0.1309727850032766 0.6688781988237856 -0.24378362043752053 0.21827969737797265 0.5543191689018329 0.1421402102909641 -0.2487284031227854 0.08333152881717679 0.23097854023372189 0.0822749882750321 -0.09431798577654357 0.06659542663145328 -0.012473908792840912 0.20915532584796317 0.7036329772470095 0.18400645433681087 0.16436325761684703 -0.0419174865105021 0.1465648961230289 0.02121650420752963 -0.2603401037916237 0.7400989394686732 -0.34930288223981276 0.06935348981231558 0.4642782717616556 -0.08337970316051375 0.06374690925213282 0.03227890355887518 
-0.3482453150478565 0.10540033750542295 -0.4777658326756106 -0.0373027439885606 -0.2294766663377338 -0.10626425275989712 0.43458148133193625 -0.3393790267364249 0.3052759161211656 0.3085926572634851 -0.019300482990801462 0.16200561389710016 0.19474957733961645 -0.4968728684180755 -0.1667175402304398 0.07385212008801759 0.2552755492268737 -0.42115820696854905 -0.3129931632883483 0.345131773702012 -0.00993868893235727 0.2067600481666377 0.21981360454071305 -0.5031976063432395 0.42378920675901327 -0.015296846576322437 -0.4654346489161366 -0.17796190694409805 -0.41204412442459804 -0.4794057634132755 0.06982723884833768 -0.2368797341208166 0.048173615298372365 0.03882511806311782 -0.26728922688368256 0.313648469875449 0.4357817104877642 0.4577112010906764 0.4418307469118417 -0.4036338457485332 0.4847285650133812 -0.41410982009354497 -0.5131637653436653 -0.1599811643742523 0.13019601309481624 -0.4493763715846492 0.09663621466021888 0.2565507328643727 0.274191170124127 0.16883565458829042 -0.13208231555899283 0.4407278571675627 -0.18462903833757324 -0.3454868682403953 -0.08186569894126511 0.3230133957307694 0.014260677659805484 -0.11799861272811513 0.04688397103442811 0.5095448907104169 -0.005873076729581748 0.20615087062178422 -0.013892833149370322 0.42234906463670896 0.4844909369416153 -0.22833585114733854 -0.23200432174991872 -0.20363096503857514 0.3858332459968631 0.14602828530669648 -0.11008318759630273 -0.26618034847204547 -0.43865625479307907 0.07754042752055401 0.05874069627875504 0.45525030319475196 0.20106254432251713 -0.08275186212489978 0.015347859719972157 -0.1636962087545819 
-0.1408755861204775 0.17443745488552304 0.1134544402277205 0.12598691589588681 0.45957502965163266 -0.016092342214678354 -0.34549063087067083 -0.24381803293269647 0.47095410375861524 -0.31101363341610927 -0.4886627830808889 -0.40975375423977795 0.48259871516035613 -0.37130897574792704 -0.14800507269905736 -0.40885507838826407 0.08294014589146555 0.02414892151345143 0.016259031552767988 0.25898084988705 0.22081345199329608 -0.446261015945913 -0.3056613266964599 0.004979864501554585 0.16332102072803142 0.10348245686889598 -0.21879493260040866 0.4540151469389123 -0.20879150455834955 0.006877852212282027 -0.44164375728291244 0.14350929202610363 0.11483872721405831 -0.30336817208277317 0.2499028903688716 -0.06770498868356305 -0.2891416520342545 0.1665972495487265 0.4309391174729578 -0.14871953678860145 0.2363069526323815 0.08100576066935505 -0.41483206874972595 -0.2058639648006066 0.29796785959581473 -0.337001272486391 -0.27153337603547595 -0.3155272392354544 -0.2469401040529922 -0.25669578692008677 0.20033695427792048 0.1608300308665276 -0.07332423093352618 0.4545055757630307 -0.27770821364055487 -0.03352659333661067 0.33325767180902655 0.10382335019504783 0.16638447376580068 0.4330164341912279 0.24969479527564487 -0.29155490300369785 -0.051196668609221035 0.29353707364882314 -0.15967178126231563 -0.499223015252428 -0.4809606651820573 0.234484568849959 -0.30383951217231353 -0.48919627083434475 0.22503283124505719 0.17874274876078447 0.2214968672130775 -0.07390078614156828 -0.27316506211319 0.2424524755831604 -0.1708225750463341 -0.4301080800380985 0.20012547825358312 -0.23114426612482133 
-0.19733550531978167 0.2635237292344292 -0.1487571431441602 -0.433939478115155 0.43063563962827983 0.22401523728164566 -0.43430225530109096 -0.21236882085937456 0.39910883173113865 -0.019276622669317255 0.16057195369236887 0.3771550580092237 0.31125566486777195 0.39327143918092516 0.31898279025785065 0.15278453797502015 -0.02959766087276212 -0.4362661568915622 0.20567526618982157 -0.07857900657540237 0.29930303584615864 0.3475044454224979 -0.26391076631780314 -0.07180440981172603 -0.2232794828376191 0.13552920214975098 -0.3389586453949825 0.14555648538123472 -0.13053307904536038 0.3768020420171405 -0.05190348769959804 -0.4604620798922719 0.22563683549728755 0.02646426965126867 0.413907933789032 -0.4482558676029701 0.3278745953736778 -0.24446307843788306 0.2372316259592355 0.4389846594247791 -0.10249993381338872 0.27535318177469165 -0.3107112864949427 0.02563424277525683 -0.40865410987476847 -0.41312985769681243 0.49683484632790986 -0.36631484579339735 0.4238436505072493 0.29722672577950476 0.2294168643720762 -0.2754711731165097 -0.08246253292174104 0.4172229394568883 0.45522339788990746 -0.24680495584068127 0.20304845176355313 0.20905934583157693 -0.2040585457914654 0.32475338378672564 0.14626302152815712 -0.28993076802290596 -0.4252909853548692 -0.40704985820849726 0.13512885596587135 -0.44476080861611006 -0.4884640381670759 0.14183121710832952 0.30269406498123036 -0.4326099775865076 -0.21764498235293778 0.3019962036646962 -0.14134256872705325 0.4142956931578601 -0.18430845436452709 -0.010893706332232278 -0.36256715267796824 0.27974631713882536 0.40537341708906455 -0.36558131643072056 
0.22351083247261858 0.19890329731660555 -0.019100454849599782 -0.2100670881349367 0.5046775879876291 -0.39098135084794833 -0.06468482042178689 0.03365542722276968 -0.31452475614677733 0.15379276552533733 -0.04227931426355184 0.0282971715775687 0.10328968262597389 -0.15610226581906037 -0.2152302962053679 -0.08974305594421736 0.40156391683304055 -0.36831579584189483 0.47115759203683266 0.5415938643881834 -0.31551777035932477 0.16368342217286863 0.19300709381050793 -0.03817812554533027 0.2957715929807165 0.19884913018917613 0.019600138912520666 0.23863825406069097 0.31834132326846576 -0.4225522467589134 -0.1442949958070682 0.1227297915153431 -0.4436087703711712 0.28027337295739113 -0.2606041600166237 0.28725784598738996 0.40991863540257856 -0.10182630430034115 -0.4768190016277326 -0.11644215296240924 0.15891823472517386 0.46085307759172467 0.18072519246454224 0.20234616009620068 0.009157653763312843 0.0016196882561354195 -0.5057320310221047 -0.38727516981755344 -0.1970125235532209 -0.16651534353686837 0.10944778163989598 0.1297040092433136 0.4768911358171032 -0.3501482530360519 -0.329415991271706 0.3370742122783935 0.05050477313569302 -0.3103327550625904 0.027622148980360934 -0.223761586715866 -0.42900712185887363 -0.30207507003184075 0.2094211673080075 -0.29742884362258926 -0.08754440505165842 0.020630418805599703 -0.32139699779356334 -0.35329978161338144 -0.4725293121048834 -0.3054462929579685 -0.2181279006721701 -0.20201279705596706 0.1745014246020642 -0.1477417576963491 0.2831171365427643 0.33408561909671175 0.23209439523222752 -0.10168416958399011 0.12347084349921932 -0.059738566241487386 
-0.1075596198102339 -0.11086214550811359 -0.3658040254809927 0.02974754552176876 0.14077125233186544 0.38117710100339147 -0.0980038889525755 -0.3010589658455822 0.3879326806651054 -0.20021364028159594 0.08454842646129869 -0.4714777474340201 0.17850312743974184 0.05644230031426622 0.27706539470230573 -0.12635194490302903 0.20759972766237772 -0.31783458652526747 -0.3637828635757699 -0.10985704656976737 -0.37347572838831977 0.14461167281736198 -0.14067521922527068 -0.4944213991180571 0.13375349652472324 0.45622769879766706 0.014390146280538248 -0.39263463231991175 0.36735748652282696 0.3437679345162603 0.30826858552277264 -0.35128570021691335 -0.3610134721901965 0.2971559078269643 0.1795934482644196 -0.0692167801025153 0.194931850572964 -0.40095263070450365 -0.1656544179501844 -0.19570385231128895 0.06319480171667648 0.2866832628706056 -0.2727682002803134 -0.11607977626693974 0.015052439241981337 -0.35176805890734 0.17987437392167685 0.2143670938877101 0.3584046662196952 -0.48502223711807535 0.21638851374413012 -0.20876771532086116 0.07641275714601443 0.03734076644849968 -0.16950029766725624 -0.2712949643374196 0.251753290162926 0.09700075952509045 -0.2916469184015602 -0.3650224033807717 -0.08861405919889624 -0.17890357414156147 0.3080792968364878 0.128070995750883 0.12837872825118538 -0.15588319880505738 0.04850897720627317 -0.05147172626473419 -0.25944797160613325 0.1997109160675496 -0.38351176397930975 0.11306540168653699 0.008024601657005092 -0.4176054189542178 -0.36555433968013545 -0.23165107730098314 0.4533464612096496 -0.14560802564737374 0.34266114547331683 0.4040081569903508 
0.3634953427574526 0.3927251852337528 -0.2692286075162958 -0.002096398135941904 -0.4569783731780451 -0.31522883714754657 -0.010112976483547219 -0.4331309158691724 -0.23887416783810878 0.1919861864940158 -0.45904812873198286 0.23351409095388084 0.4491017417434734 0.16209279772238103 0.43293211679715543 -0.41968547268260065 0.4701793830106092 0.4249118451923183 -0.36503013419202485 -0.22274273448297569 0.29812772721553776 -0.34418339586961616 -0.2726505922598885 0.17453773388106625 -0.4917806085123756 -0.11642183942145964 0.4010585752362342 -0.4486111208929367 0.030791792665899112 0.2642288304507575 -0.4892880923776445 -0.4289455560388482 -0.04866645879115544 -0.10317847609453096 -0.35854430472206633 -0.05211960872930864 0.23337994041481472 0.17068051078622992 -0.1849256895879273 0.10704542379235761 0.25041307853371675 0.21519980249146173 -0.4860846806853579 0.011531234664787154 0.33849698427146624 0.4384899157848846 0.06832882708625476 -0.22144252756599367 -0.053264448746356406 -0.35488356543525645 0.39350858709384423 0.40348336827413617 -0.07208070068333317 -0.21070871041672756 0.4178390046744521 -0.1548545904471149 0.10424321606927982 0.13266775646389148 0.3215513737943697 -0.005841383655405951 0.3092136344028054 -0.13257206561320448 -0.08747211742365088 -0.05897920460619792 0.3633553637257164 -0.362832949819633 0.21835535789548427 0.1449477745029229 -0.3660048673518533 -0.15422244153443396 0.010506318653078058 0.3667731010809405 0.297926681652004 0.32208999949905415 -3.8674305917304894E-4 -0.060057899013232684 0.16532950434559937 -0.3409128869134239 0.42183457453790424 0.3693787115229638 
-0.7122231341246523 -0.6205498930917387 0.5367714656902 -0.2050923528290325 -0.8884105916659258 -0.11563666365896835 0.4629875443190147 -0.5552058855218484 -0.42535305891361164 0.0330338468874945 -0.6683365402640239 0.5909536349363645 0.21903909169185973 0.9192856287413542 -0.4621448808132042 0.025743865384443013 0.7007599895631744 -0.11250315740354186 0.48453111231370866 -0.7322117875144043 -0.24244432038842476 0.07472504354398843 -0.12311794000067135 -0.34393879212924183 0.19919582684412898 0.2074139567374297 0.6534829586230037 0.048071205240343126 -0.35437630018080496 -8.686040980901868E-4 -0.6850249488008073 0.61820294372702 -0.41253405563695145 0.14574098561066498 -0.18069337125192075 -0.15876641257638635 -0.5317250064635841 0.28646485944693784 -0.4243462576037996 -0.09889657207314019 -0.12998342529983234 0.7310356930732127 0.0677676973302274 0.018977105163439464 -0.046784074209188155 0.23535494384164268 0.34769237972593703 0.4973212552142749 0.05149231314538014 -0.09174091706010293 -0.05649305838565306 0.08051854267784873 0.19517276206002823 -0.19884751687070637 0.5111892321486815 -0.06342904603217962 -0.6119668474199739 -0.7431675140095483 0.02628890441170364 -0.3087328120940952 0.20254144976288488 0.6650690888153937 0.41807623789477905 -0.01790917010225996 -0.4491686880245698 -0.45033949253575456 -0.417742119771093 -0.16802349960188334 -0.033286857905392445 0.036537627793041955 -0.16871487860958356 0.5446034747794325 0.15984410492741544 -0.8729569105796825 0.4719554405785935 -0.4166343486482668 -0.20856784749627416 -0.21690369100932866 -0.7423115568511347 0.34429270773560444 
0.08917529852145321 -0.04958785527926485 0.31722848846470414 0.08382418809842608 -0.37280527569421346 -0.39791672980327514 -0.16976596330077373 -0.49016808081768976 -0.42749194745721425 -0.2522918613377761 -0.09060307609361223 -0.42124854552193036 -0.02170211592965157 0.07028486748389322 0.026877218251238136 0.24425417842465666 -0.4353815813233453 -0.49775006055507276 0.1427143506732825 -0.4307781635339588 0.09186554749201145 -0.38296191920778355 -0.009648339892907726 0.3327377838661954 0.15684055102947705 -0.459337761045364 0.1858318603268453 0.1513303193451087 0.16285077843283788 0.28848865836902043 -0.04135344711354502 0.178922566923818 0.423803811549118 0.04224167541019441 -0.048222665921925256 0.3793310830456386 0.012836999541468525 -0.33308364970784904 0.30050024973153633 0.4843902030772798 0.4169283100420329 0.10936329514773553 -0.011199560541860668 0.022118596038372525 -0.07942875856706211 0.08160778996682637 -0.17764201857495587 -0.02365231507404363 -0.2922809597703005 -0.24030400927711826 0.21044344397801032 -0.34714203460568527 -0.3303379306639804 -0.09415044814228637 -0.17886951168691928 0.2860851640895656 -0.2999270256503684 -0.3419618114053796 0.14128271381044083 -0.13177621400954226 0.011894710605702559 -0.0746858734669368 0.30846657705914654 0.27962857680184156 -0.1691518965543756 -0.05490463923979637 -0.2413920584215288 -0.28777552246151206 -0.18189454767943303 -0.03719142440962602 -0.01787919867709838 -0.34232271752289567 0.06839348315660783 -0.3752285564758175 0.11064382014553832 -0.39955053383610906 -0.474940593070375 -0.3351239939837689 -0.012061980804931328 -0.44104776752962005 
-0.4480148770412536 0.14564822675669062 0.42578881239969024 0.24221674288734765 -0.2922809124965155 0.010184381833298837 0.3939498829979927 -0.45489897462040474 0.049690405219542155 0.4593473444910954 0.16516979667589987 0.45272148515407146 -0.18914816327545297 0.017536448207163366 -0.013861870867097436 0.2286380444677832 -0.11470789934392832 0.358725862526548 0.366315640201482 -0.15515840814683995 -0.49567062844985454 -0.47126437148446865 -0.10708595662798188 0.3398358541349631 0.2717441635488814 -0.03588256166620536 0.3440797410459314 -0.32122537474780327 0.05234571531735495 0.23574771085825255 0.018000685778707923 0.05611309574125296 0.25028695969113185 -0.09715231011711693 0.3391815034413079 -0.47614142276493354 -0.2979089009009841 0.287644573132845 0.3327921552595483 -0.13801868616180088 -0.24898069311119242 0.22419251437245818 -0.14021774137797086 0.3996645252699283 0.0654329034423077 0.06334777455643341 -0.46839533241870407 0.30153786499154756 0.409530096289738 0.2739011805518702 -0.24274066127915228 -0.4549691755984639 -0.11346974160487791 0.025386230612290072 -0.38909046244513057 0.32193923954254644 0.15870072481529443 0.028064786755282494 0.2980574819857841 0.10392952734781293 -0.26669331831282844 -0.28287872398746183 0.2875649522717181 0.13942838400408855 -0.25781604470701325 -0.3785325109799913 -0.25761951031725777 0.19121669476435735 0.4775064136404932 0.323979708669908 0.4392944363335426 -0.19612118739559764 -0.32557274268593983 0.06010244487697977 0.21410285283799602 0.29657809900174265 -0.3653254802475341 0.3314071209298244 -0.09129035450495429 -0.14259612674696456 
0.2938397467010642 0.3344671630051909 -0.14290990254885408 -0.0935552769889012 -0.12570490553275193 0.22777765902908123 0.33757201160515643 -0.18364067091330782 -0.10723557323300675 0.4555735484588187 -0.40386720709629037 -0.22412361092179728 0.33063569252201824 0.3207274426081683 -0.04275956055930702 0.3189143154297916 0.13484547513043377 0.14596714885890605 -0.06890789603676546 0.34703918388042077 -0.48662927754819624 0.02177210662468893 0.38533846475676564 0.2763772575078669 0.24327062910214317 0.15366411378803627 -0.3325490282501365 0.07288157625268345 -0.1275667262030407 0.24863352512375514 -0.018705743421508107 0.19592632408279023 -0.4469911556961574 0.39429611483042143 0.4692982294649213 -0.17781996934355582 0.4152830109588429 -0.2368144954296074 0.2021991113596102 -0.37335598210956933 -0.4560095314060654 -0.41524287435631785 -0.41104697618963854 -0.487824580615825 -0.08361562447082917 -0.3885936222925453 0.04694850464386541 0.46015840442273725 0.44725273796264425 -0.197074122339877 0.23991923109773658 -0.3640881910964039 -0.442318729244353 -0.023381682452015832 -0.3635333776931058 0.3608201796234712 -0.03133109417247825 0.26192278672631947 0.46367336354711625 0.44282997937426083 0.07480978527729898 0.08654157692458564 0.2796619275276689 -0.31602838247647735 -0.3349045602676084 0.3652412340396324 0.39974028477803875 -0.20051358366517144 -0.2373268777034187 0.08249811850348157 -0.21220657683020222 -0.37849602156427375 0.21831132956392624 -0.4207576083413217 0.2884167765226715 0.10395316702308027 -0.09015939567699394 -0.2056052292151705 -0.15059338524677443 -0.48714574133095334 
-0.48867372942897075 -0.1604832973246507 -0.21853290891427207 -0.31782585520972734 0.4745999465016963 0.044647414402804314 -0.3769193190581549 0.3576846200073952 0.1531949281891124 -0.4670429636934549 0.20860532844298105 -0.38117712164730316 0.10237865775372358 -0.11310198950422841 -0.006227865342473143 0.08243438233281959 0.10799143455398666 0.24992494619589536 -0.15985713939876206 -0.008801158624700014 -0.09299874458712136 -0.31802493915795854 -0.025181703718439336 0.3678817555704492 0.44370912935547213 -0.21049534334152514 -0.38665440660736256 -0.3144956629619507 0.34418693265210487 0.24933667254744324 0.4911535737330789 -0.48687699949812063 0.15557644108088117 0.09934360231684325 -0.46896700228551674 -0.29307303187936284 0.3021775018664229 0.2437474353733343 0.18402694349416315 0.07546644739337748 -0.06585452117726137 0.4552086193985182 -0.27798872201358615 0.3175667474791327 0.32006079482080835 -0.4210882225262299 0.15044392095931128 0.27928712503230746 0.23381735323797156 -0.477791142048308 0.06701488848123731 0.41350317930122904 0.3326740359180726 -0.3693469159701719 -0.03533591141429151 0.11100685506929012 -0.1836991300455906 0.4056729087461904 -0.17632480455782296 0.32409229192467304 0.44860609885043456 0.3551170732895167 -0.18463758721299678 -0.13396930440580207 -0.2800882271954151 0.06301694667806156 -0.47221595766724117 0.4558175572420383 -0.30908671482014766 -0.1577609465872108 0.18524080349691963 0.4818262896010307 -0.45119585130538575 0.177094705991664 0.10310667585658746 -0.10227266561675619 -0.24700401434832925 0.479320775548762 0.23179924015415043 0.03918550195811893 
0.18698271367592853 -0.4767463785947779 0.3617871817126673 -0.47338669919131793 -0.15501365865351996 0.19588255294003556 -0.3675335430059663 -0.21080347095168755 -0.2840807726863062 0.3239481307572044 0.15425595425485808 -0.1442830586206174 0.4153240560635505 -0.4825506361846616 -0.5194001521744729 -0.269172310496928 -0.2745395141487104 -0.08107543856412605 0.3822265731414352 0.25737546206704043 0.49302698281303325 -0.31940921877562384 -0.4278891289687372 0.3952789170559828 -0.18621217707574275 -0.05519251426423645 0.17339592783483365 -0.12854801171040592 0.47035545842950305 -0.08311257629001613 -0.3646060726665131 0.260030512469891 -0.36351235366277784 -0.04624503230875314 -0.1814404170218527 0.13668002970291862 0.3672144480362109 0.01833045028060529 -0.1834266606400513 0.17125484438812424 -0.04578454797777267 -0.4901331812871824 0.09384945347871498 -0.21114279994529908 0.3430840415165854 0.41912244232509593 -0.3943636660793131 -0.05099697169149504 -0.399497122258078 0.017039464441201788 0.12346283143890467 -0.042339813201339095 0.32640157502147454 -0.20745648485754895 0.34560402456957295 -0.4843457521561362 -0.2523303702033587 -0.15751865437531323 -0.3666608064640079 -0.33540072840545854 0.24998188525246892 0.08122311125791465 0.33682646530418126 0.012818519690380777 -0.462715061931634 -0.3968959506992947 0.27031301401674956 0.20394609573339217 0.4551624819810483 0.06391304254681886 -0.3278140714538033 0.08074388331192481 0.34246179539117777 -0.18246504451981843 0.009708999241165412 0.28287677526114 -0.45394771686839036 -0.41004763580331144 -0.5436713072040232 -0.09475811002748176 
0.33504498478655864 0.10693745481840568 0.18944365773211558 0.33703646758795297 0.32413253750794246 -0.43405546677610607 0.21405362062700584 0.27375049191153233 0.2893997929827064 0.306619146097549 -0.18922004141091409 -0.36761580731957094 -0.4722001229631739 0.25618083699421146 0.10468481793506619 -0.3185874842466077 0.044674694569536016 0.16286411871140719 -0.2717972422637348 0.11264842067171918 -0.5006699429618707 0.41697961279444956 0.240886864548502 -0.12880922865612973 0.18713778805815615 0.31261843376781645 -0.014680270970540277 0.002573362056699672 -0.3598390194240487 -0.5234014277187906 0.0515530999814397 -0.43151092201598557 0.35507305095689695 -0.23049328469684788 -0.1803444440026468 0.47390856040915375 0.5073623327121165 -0.011364638528017846 0.21751393670360863 -0.08737176956601733 -0.27409223213258366 0.1585195057073821 0.5020108096903767 0.07176387785022165 -0.3785647169343778 -0.3961364497329017 -0.44188881646209743 -0.43401302470351066 0.32018913709721836 -0.0010662872172446046 0.18220287998373147 0.20687383926699926 0.3784590905999232 -0.14134952127047454 -0.23066754758917052 0.09347205195970704 -0.06963207046996185 -0.13245421978681032 0.011963990589898627 0.04422296152914757 0.17298296585745726 -0.2686623614025228 -0.09931188567605792 -0.3892768735802431 -0.1245703958141675 -0.07512887801005398 0.2954526519864449 -0.15292150784588507 -0.5353114433630467 0.16881018141548926 0.37669935585028186 -0.4388569847513837 0.25777119587939257 -0.19941939735821906 0.3705842988766024 0.5654299388861461 0.09764531273169912 -0.023187923712773346 -0.3905187933896672 -0.12814260491938437 
-0.05589799754669311 -0.23717715535749787 -0.4992917959826303 0.13907937741136314 0.45603543405947516 0.48836267001679906 -0.36832699010623404 0.14161050863956726 0.030664758624493273 -0.2500624627722612 -0.36720118089555065 0.34479402243193696 -0.3094924454720306 0.496851485551426 -0.19776753869539157 0.051883528385310324 0.2108618480116924 0.006716797811183791 -0.3673756747834056 -0.4601527290568651 -0.3214208227951784 -0.09974204806492519 0.21252791406032995 0.25690292112795066 0.2565661034848678 0.3028461121788706 0.1685375134131054 0.19369271126013557 -0.14532705798791565 0.36033879076096814 -0.3498884100273667 0.3302734808157219 0.1642276770882151 0.36020572867226364 -0.4415651950029776 0.0035234875370021607 -0.2212303678232032 -0.10708949804211446 -0.34456965399416845 0.28120288904927504 0.12769418822147116 0.23246684263952477 -0.4986993369219509 0.2249198169661552 -0.42037968783012997 0.06677662169644723 -0.2894458059568533 -0.09898986750742443 0.2706328467265339 0.28121213609873497 0.27995190224131306 -0.005440722208559653 0.20756795916740403 0.27765307667183514 0.21477391240026406 0.20632318538064032 -0.15675460390540896 -0.21302746604146972 0.1889688666059572 0.41758352309175334 0.3845960519758087 -0.4901208833743453 -0.22861023092472324 0.4873055341740106 0.33046172944856517 0.43578271166429894 0.18801578737850602 0.13944647283484757 -0.2513183800166165 -0.33231453891459334 -0.44692588272145845 -0.3953870512446688 -0.25078865867173944 0.14438794330781082 0.08211053088610239 0.29472478763501536 -0.2807569504329373 0.2934242979839926 0.4316226735853849 0.3528422594300845 
-0.21094759256760104 -0.4884983885943058 0.08320443091611958 -0.48838255505126515 -0.6448150029149106 0.3014588744800649 0.240599885969043 -0.15535988099085618 -0.23264656403807707 -0.36644715008837236 -0.26677348302316517 -0.09889933095433379 -0.259410063554303 0.9323960485814139 -0.3160295952189241 0.294785709711067 0.670405133445022 0.3122292650356003 0.39604824579542813 -0.8287245284856303 0.22330577854997388 -0.3774417675606152 0.15588345767665748 -0.3146713779409276 0.495175772014231 0.08924526521794927 -0.19393778152358418 -0.30887699779510497 0.26090334938566806 0.5036157167633468 0.04768009983719801 0.4328721425863186 0.1602966994121531 -0.3441077049280983 0.458899101825387 -0.17261703828885813 -0.11045459536806501 -0.26173894750341115 0.10359901250776982 -0.15272293177753998 -0.57671410743131 0.48073494104087106 -0.028861215721079733 -0.5108906701966692 0.09191678346561885 -0.383017316073447 0.40489103744204724 -0.16455497204075106 -0.04671027301046399 -0.6427787232376532 0.19089353715557839 -0.19467747291878798 0.5911157105611128 -0.6546138879658769 0.6243244043300461 0.03981195201987744 -0.38455110806352405 -0.15440616842998695 -0.2946478401611519 0.17703793770550888 0.3857188662108659 0.47476217197143383 0.32851732247289517 -0.14874138264209574 -0.21899160685880303 -0.6468674872762865 -0.7872739484508103 0.560742488634629 0.4776379292522483 -0.29963707694111424 0.17846043427548242 0.05706133757437834 -0.4499954496728828 -0.5028755152861542 0.3992858375494518 -0.629148893762047 -0.5696911803312504 -0.3396992664783712 -0.738948421510998 0.4003594052810752 
-0.47444573542944074 -0.13989029093043778 0.10226001452351895 -0.41625800409305164 0.2985988838478757 0.06405672142853427 -0.49351100494589123 -0.4356562794601497 -0.4355696915007939 0.03311394769331377 -0.3756878446409059 0.1608655141803694 0.15276730523266022 0.3909772236038974 -0.5069937847225733 -0.12467364407409358 0.12547932212559995 -0.12334909433525879 0.14771394349033362 -0.5123593457854659 -0.22518809669189918 0.2675076263780463 0.38701329457130146 -0.4297849598672505 0.2522450072864775 0.03129671165905193 -0.41137029977719414 0.17352144090958727 -0.4458495954030231 -0.2592393667518019 -0.48205675700966627 -0.19497853214163202 -0.12256795024193447 0.0302689901555398 -0.27747989184800165 -0.2751965392415054 0.10288726063412326 -0.12067258239518788 0.34373088462757306 0.3442952678026706 0.37274171860711897 -0.08308981843100081 0.06513774777956974 -0.017784942515566338 -0.34389029405351496 -0.4265731364573974 -0.11344541564256656 0.3188587258643306 -0.43907248879503946 0.01997802608333839 0.23651712969547775 -0.22717088749643227 0.17129404604481335 -0.36823390361239533 -0.19368573040632456 0.22497369352196842 -0.15527400655790174 0.4415338711348563 0.3614336313239181 -0.37252729736295886 -0.41290392057809994 -0.09552914877162506 0.06519929275313596 0.48017149697837486 0.04623311477333663 -0.3531354866163848 -0.35022376697564767 0.19216634884490033 0.17570339395102091 -0.30268504438932925 -0.12422301404088795 0.1658715394532951 -0.31617588787316653 -0.23444403309144682 0.27748628893547617 -0.3923336066299469 -0.2498795297512605 -0.4221332136158285 0.09304859737350875 0.01950251365087284 
0.16020286609756534 -0.36582239559802265 0.8776742483223873 -0.6275325979223395 -0.7065374512938762 -0.18748829879684126 -0.11461188190372777 -0.7219348823161343 -0.7320107619370351 0.07811430316024733 -0.460723993600108 -0.01156141698135229 -0.003801315071388825 0.7586275275436578 -0.5483823971566322 0.5145911088723741 0.34509336578030114 -0.42106517828079776 -0.3763092120053431 -0.5310851002209964 -0.06600738338273733 -0.2895340627032667 0.47319167687216096 -0.1993796312327028 -0.10761189431778048 0.30470469562329583 0.6847263214635837 -0.04546128599858586 0.46091992486235395 0.10003585625967579 -0.5130799200825054 0.2728007872650584 0.038615191962322146 0.4595694169329238 0.7275801726699254 -0.35049855112421274 -0.42251274976583814 -0.0698388838538731 0.15430168201307506 0.37508442152359217 -0.5760927459216785 0.31519828104071446 -0.5556425615878126 0.07903437210261591 0.6053311927836452 -0.35429010202714667 -0.1378246605326988 0.540390462871054 0.5485227867416289 -0.549158202161021 -0.20528848974784591 0.13986739182194846 0.14725165932406412 -0.62750657162152 0.2434652337666821 -0.3558351532083707 -0.6168137731685405 -0.8578837772552838 -0.3270379726934444 -0.23107813211876557 0.5224681887217618 0.41186857118480313 -0.2678039473533738 0.4110548535108339 0.5393015356825698 -0.5339141677620864 -0.33591382406276704 0.5647393663328498 0.022285608907692225 0.15750938869046915 -0.6608100641635816 -0.07290947071832737 -0.08146985177460729 -0.7653965205500268 0.5755767618407547 -0.24041563819968306 -0.9241883432210738 -0.15361068488459856 0.006987029232901116 0.21660924641911894 
0.32387442811698114 0.22586169885554377 -0.2690580638514836 0.055519036929330697 -0.10496137745268448 0.03196774845596429 0.43100783645624746 0.07173842335491544 -0.35838857717393774 0.24600374286999707 -0.4392264224159505 0.07009904272206684 -0.09338056957491629 -0.48543115464160164 0.4876264218260468 0.42067124547229295 -0.09339080326367122 0.09180687912968119 -0.44279871634492335 0.10430043307471229 -0.12921734633139081 -0.08756817019097175 -0.3484750843558794 0.2757726892657332 -0.39808228145959534 -0.2984364996513176 -0.009514272738493906 -0.30697993898866616 0.49590107333865174 -0.3449363732421811 0.11135605242091713 -0.44127622801321265 -0.41446782576645397 -0.29137924719532793 -0.12033877711730138 0.2203847910965064 -0.2237594464638997 -0.3634766262766758 0.46962428775421194 -0.468970004796306 0.1756718397256099 0.04482640979089579 0.03049369177159412 0.27690324616396944 0.01882266313902569 -0.42971696457488306 -0.18914500583005062 0.3749457626611766 0.35198156246658535 0.3577067528222448 0.2481702401268595 0.03994073249133876 -0.12935724416273822 -0.1813867967576457 0.4370124833369302 0.008684903022916426 -0.31888926690600655 -0.1685019647605331 -0.3326077760621299 0.3668587604848646 0.3839839123592879 0.3270101550765437 -0.41106009973741925 0.4103708539683325 0.30516364668508855 0.32095497946520246 -0.022273540877152654 -0.41588080823136053 -0.47063005607497016 -0.3469300822279704 0.06011914291314335 0.26846394842388926 -0.37942541893788184 0.3548918387565564 -0.031169322234906364 0.48091188618342784 -0.28440584631455773 -0.1878774282577524 0.39236260367089104 -0.1134791839309594 
0.1104592456576176 -0.30839892748161707 0.003953267100526775 -0.2866307053298721 0.021458444661215593 -0.12431966513705185 -0.13826869845595263 0.2453717905531425 0.32695974758089114 -0.3226389908516598 -0.1494985827690578 -0.11450765924043557 -0.46292004358018196 0.4985565893555341 -0.3175712655099068 0.02384961668652249 0.47953708841011045 0.17173342908815056 0.3279907036423736 -0.12597853607965798 -0.27807909873812914 0.33012970931504143 -0.02948667958511031 0.06304864300030888 -0.35210041219110544 0.017073698701684313 -0.29979433541644074 0.06170382382524915 -0.2714464627153219 -0.4414433571005617 0.49262077655004444 0.1710422057740111 -0.16918613664364252 0.47875388334223523 0.4917076891216213 -0.16215705601756158 0.3146664269036722 -0.18748846891947227 0.25997785448256516 -0.4734132798140711 0.2727495135596356 -0.23004240025150477 0.46289384358096813 0.24079154265888544 -0.48722811817591494 0.09657195586762404 0.37796332474078936 0.0680543492591081 -0.20888899522904247 -0.14290239459144316 -0.2422147046957304 -0.2317025559574041 0.3514079261679441 -0.39739118205298 -0.1893482694506148 -0.4462954488602379 0.05122725626469824 0.057638995361255906 -0.4976481575154778 -0.3419768292433097 0.23074926905400267 -0.479065645675159 -0.05663617091345748 0.20965443474568604 -0.006041882425300395 0.1540979754825435 0.3673679082938463 0.20868887997040853 -0.224907735200768 0.20610167825206285 0.0868137823355665 0.15340648201426857 -0.11533446450506436 0.016706430339717714 -0.135523579954537 -0.08945420199243287 0.246780382984431 0.31780064966864846 0.32604393612194266 0.014238665645790955 
-0.32126697054575304 -0.02010729598269118 0.40643822448356726 0.46345396167850084 -0.14058075041560536 -0.20306222764571347 0.3503530659700713 0.4188084888439365 -0.34043073705167104 0.4354547766308403 0.391902550795722 -0.03161314100473157 -0.4603837485127282 -0.2130124683144119 0.1702104019860087 0.2703847223394459 -0.4235680836205308 0.437663553568894 -0.18895368508433275 -0.13601183893601315 0.05748517936619842 -0.12598423816394003 -0.17359417327924773 0.028010858308902733 -0.2762024966849269 0.22637482157776823 0.20341249930480898 0.3440514808806648 0.4636984064777406 0.23815059542460068 -0.4192730157209131 0.3405564753659314 -0.36244944146298197 -0.02267203607145786 -0.06826238932807391 0.43528817178609486 0.3219993883533632 -0.3807153263715967 0.08452404499583867 -0.20641903731473504 0.44783062019013675 0.23719639122582553 0.04774385405955386 -0.1235047822772933 0.19300245241879824 0.14709183672729992 -0.41732030725570207 -0.3582033841391971 0.0011994592125353298 -0.22166239419183395 0.2938332572159073 0.46860973006364726 0.29240207079989333 0.47336355830777144 0.17603686872651617 -0.2942627806248667 0.28988038486723056 -0.12532984171132258 -8.051388195967589E-4 -0.31637188846995024 0.3362874551780184 -0.25012935841365463 -0.4279750209299027 -0.10815181297561625 -0.18426240460071208 0.23261087007203238 -0.12017941761371181 0.47115684025785465 -0.046618222081383255 0.3909070087039785 0.013556249208301986 -0.015269101303415489 -0.06105920130782818 0.06940581372685205 0.030176534985771986 -0.23775390796041646 0.23113499697004278 -0.3681731949454176 0.21241866361489922 -0.3724662394100186 
0.3268926236636179 0.04337446109516076 -0.39854951856857157 0.006355078217526628 0.19391139758708018 0.35221631358860644 0.4655921980987966 -0.2965160910649664 0.019072735353418163 0.09476389571674944 -0.04197960758977837 -0.2842718856827731 0.39728891164076097 -0.2767055163179223 0.36868449654908586 0.4983703491806688 -0.20234696594636015 0.3556904357415829 0.3344203611551797 -0.048300782469723885 -0.1932463300937035 -0.47484303876003875 -0.2845417737780531 0.36979530988782333 -0.1869340573818737 -0.32045292075032367 0.22994504877693664 0.13014473583136987 -0.287708384123417 0.30423810405872587 -0.47483436681402974 -0.19462764762350565 -0.3069991191537524 0.4940758784581388 0.09864675315625654 -0.36323204692008715 0.39889553210505935 -0.32518336519279806 0.3400985802939661 0.06785790216265745 -0.4407676451870841 -0.025112968764266337 0.08457281480295864 0.10482809637090068 -0.30047016514967245 0.42584473051391736 0.1518663767771801 -0.15310602025679104 -0.30356178715792 -0.21575209911475973 -0.17634681997548463 0.3719651962902265 -0.25046052661154156 0.2611344268005614 -0.361526153521536 -0.39882814312421566 -0.205228046467124 -0.1460243990703261 -0.4175254795172639 0.419789180801997 -0.4625112899706101 0.3108457512624787 -0.40503038849941825 -0.4962414512824421 0.009423965709221927 -0.045706001013671824 0.2558303797415035 -0.12048801776262857 0.06858924376126453 -0.24513410881004113 -0.31169067146333784 0.16975798066615985 0.251052295248087 0.03860216078158085 -0.009551801862775282 -0.15384230096401227 0.2290757928512301 0.1993398219411368 -0.04805605840031517 -0.3929492379589865 
0.418600380522165 -0.4594214906733518 0.5108295606126687 0.10254644846381376 -0.3712938402984687 -0.36283326627890494 -0.325535000577416 -0.02323341116241031 -0.26103430327173943 -0.47304333809645677 0.0018626836008058777 0.12580890537282124 0.46794068421259466 0.11081838438809835 0.3889999934572633 -0.4415257810167301 -0.06653166641701834 0.28615381314684485 0.41918348700856006 -0.059023866651346846 -0.22917210277932062 -0.32883256858075655 -0.17153820757030597 -0.21935154100033769 -0.08925479756351742 0.027094633458317998 0.5267070634685295 -0.03241381606118636 -0.4175490878645611 0.3840546000304063 -0.40650260999748256 -0.16591091946958256 0.4527881417357906 -0.35558697258630695 0.35744019141679073 -0.5118630564501464 0.06735160310708188 -0.23286290492846626 -0.16345636094772287 0.47744648979795445 0.2409793858866009 0.29261400247960273 -0.27169469163956445 -0.009008562191209438 0.36396102076097897 0.2856435837799541 -0.392832792709567 0.36694502075124386 -0.07549152854773564 0.017951431615182842 -0.2055859509702655 -0.28061219581969177 0.4289439679469943 0.08479566704429164 -0.1282308618088505 0.3161159723349422 -0.3042778055963588 -0.15747856509017175 0.40693088383575826 -0.46460258210280525 -0.1905487995954939 0.4326778391463424 0.21781624010511022 0.41838275105265066 0.2071475927395648 -0.3099901510119445 0.12108331838379574 0.09460425205670253 -0.3812985532720183 0.20127474492708122 -0.42530300308228786 -0.10130423066926145 -0.19465388905193418 -0.1939871060584956 0.48749550529528723 0.007233465474016301 -0.2771130642162655 -0.19826751766200046 -0.02639002606301908 0.0101263820125596 
-0.3836322358123045 -0.9364297330966539 0.37378347282067836 -0.32728689221340057 -0.6195269319641261 -0.46521862331731584 -0.36368173188110137 -0.880134202929803 -0.5492215697500804 -0.1280485136236247 -0.4427428462230179 0.07958738433837752 -0.1585518208703747 1.0455475209106027 -0.13658567223151083 0.6574534951978528 0.07791610555667162 0.32304828081439213 0.09443638162457937 -0.47734741748795284 0.3943533680670549 -0.1529139442600746 0.01925131033041181 0.10606571297478229 0.19802395098136202 -0.25358437033577075 0.7529094817341978 -0.33247459412555663 -0.06536699357744886 -0.037038206716166214 -0.169575585194806 0.0782795739129611 -0.060011724483360625 0.13944823522273156 0.03522896867577153 -0.0011077955780898594 -0.5869741702677198 -0.3560411309598836 -0.3245142580156085 0.7497608350686084 0.09355808640973176 0.35623514944081086 -0.1301300747635704 -0.459196173509265 0.2099384788059611 -0.43744135792015654 0.6781848481876132 0.6263347369404704 0.5829558766831402 -0.07591633027984972 -0.14626057573812742 0.2756651220505188 0.009345833619707557 -0.6743363354208223 -0.07442599633765609 -0.21773476126666969 -0.3159616352446317 -0.8530904959687687 0.03479799426889508 -0.6786273483241333 0.026235479795468516 0.4163262305985747 -0.15603376126507296 0.2155988700509925 -0.36882973957953696 -0.5415789287337687 -0.652346993940792 -0.011373923981352427 0.078704030925871 0.07329917017490492 -0.5979933024849784 -0.14234843353140703 0.4274605836313786 -0.6303653499544484 0.6381723654832452 -0.251697637083848 -0.08426648922232831 -0.8651365291309034 -0.4609972003503038 0.8264129841099639 
-0.45378998374528523 0.2807835947711302 0.10896057580232806 -0.2088158836927455 0.24604886582219587 0.4858822647649642 0.16292639713303417 -0.3183229931523293 0.483029343386395 0.46496886424344464 -0.208314061965222 -0.30676739731733493 -0.44810111780851797 -0.1825286670441149 -0.42678278118333884 0.3478229403684738 0.2650586288624962 0.1963104698437395 0.0957424944017207 0.499197901289784 0.4336359162565143 0.2866926340027214 -0.27118166654290193 -0.2696693382120759 0.20225473019145176 -0.012932016818722117 0.2841497475824781 0.3782784020873954 0.06735102885929142 0.1283943946844804 -0.3293410103624237 0.032025963987401575 0.29682112188499465 0.41722706364689977 -0.2019094676761323 -0.01833860406280929 0.03429434146824311 -0.4631842403203618 0.19340083521711254 0.25118544284929767 -0.4187258523109375 -0.4915074609546962 0.28535073821486084 0.25009051212535943 0.2338334278535142 0.47620472325843993 -0.19923334042335702 0.07352685740414573 -0.4402991820872917 0.057907524176104314 -0.47039603775239336 -0.3227247060115215 0.2125525391961968 0.2837206808026315 -0.4518615546928398 -0.03953937420664916 0.1942022240059343 -0.08116694959655181 0.052353964874847676 -0.16829064195286705 -0.008883518276617704 -0.314687216415099 0.16491074179054552 -0.12099609674679346 0.15635884441476142 0.4610527247675071 0.4103074072235908 0.20974874555648107 -0.27777330789400423 0.07745602741848259 0.09226479717407461 0.32975749371606033 0.28914489345973005 -0.289668509668239 0.4529377012615659 -0.31724375854753467 -0.2372159329377739 0.20693892794187 0.33949013060177075 -0.3763767399202724 
0.4904674564926886 -0.10741080592174515 0.0741811141795508 0.12390551561159364 -0.01753083780789813 -0.41193302442710705 0.3093362484489453 -0.4517974176216285 0.49138649685622393 0.4098641037521867 0.15919354462861457 0.030848198029349256 0.4455413859639275 0.30883723127327073 -0.05330120191219469 -0.06355132251565394 0.21637934457274355 0.38068396163299545 -0.047898135051059595 0.04678103895469286 -0.36790831204063773 -0.056945036696857326 -0.024181947216765386 -0.42209317686102166 -0.41735375200486696 0.3614479180973572 -0.2616183391216775 0.023040758184501072 0.046601545199466854 0.09155262389992122 -0.14917480715870435 -0.1753832670181786 0.3413722623847294 0.012519956546096259 -0.2156916023901398 -0.31758716018825783 -0.1590758936561972 0.2431731937931585 0.0029823113513060525 -0.4282124275703737 -0.255355583916224 0.3547617445699108 0.004266447815543621 0.174589953165046 -0.4468060586148358 0.24825935319927697 0.2923655521522924 0.4270171067511834 0.4537812975375322 0.4542187973159322 -0.4338403320588655 0.2431581397462163 0.35295501001847074 -0.16747697058391647 -0.4029993009128517 -0.4993569398875857 0.010564767551649305 0.46035694557275114 0.4369431707401941 0.4085815026987515 0.412385606609675 0.4691998147637047 0.4968309617117311 -0.054371633388505036 -0.18463573777018513 0.0012421161397189909 -0.21134767619364134 -0.1993215802958576 0.11480613403940286 -0.242923990769996 -0.07063054213182907 0.22339591654521168 0.1097027073245837 -0.06570357314661766 -0.29870734167875296 0.2391933276780102 0.23208208838214167 0.3799757254352995 0.4036556665115828 -0.45853461170758286 
-0.05428444689051185 0.13689325421280307 -0.3047133726110464 0.17470649235618754 0.08301872555580131 -0.08974033055170401 0.29244678956596526 0.9652490558602674 0.7650413071397654 0.46015363079909133 0.41578588447285636 -0.4774056131204204 0.00906110261969174 -0.9685476566898623 0.04221157715965702 -0.27159563331451275 -0.9799016328788749 -0.24311221802213162 -0.46049174962054323 0.9583150607158042 -0.5826873570936307 0.22199672750060231 0.12230377027611412 0.2857364180198455 0.3606063914084859 0.23590012600070034 -0.2319727629175845 0.2592435458484078 0.26836204151863874 0.2541401781943252 0.5209043370818855 -0.012238551604609568 0.3719170678217685 -0.103718583699001 0.0764475245083532 0.4407135045608041 -0.008320752059216865 0.08501341652650862 0.019833919799723265 -0.5716562340655188 -0.06468174155194033 -0.1226718261785534 -0.13096992948356032 0.6375883829238048 0.19414955203507697 0.4959682335811007 0.18994990942330442 0.10972525644206153 -0.7045182085575595 0.1421309218436902 0.6644090238697881 0.3006968500335606 -0.2547243447756873 0.12560562669561826 -0.16107299641749717 0.22808581204593678 0.5280106140279591 0.7646238433071394 0.3000143610619407 0.6212835081439807 0.17434517136192668 -0.7695337832745347 0.17411038371641968 -0.3793766230978875 -0.4538187036918873 0.26752494752940253 0.24266414867946265 -0.1621480022612769 -0.1363050365145748 0.2697919098429592 0.09366016534069134 -0.12135326570707017 -0.2724831106307726 0.8132432505762883 -0.6121641390529692 0.4035200700397327 0.3520555708230733 0.8619232507044104 0.9163689639675551 0.017607497143644048 
-0.09393695136372587 0.16582581854447626 0.3249109128445408 0.26441147297044215 -0.27267626404784273 -0.23667830898252187 0.449631974309402 -0.5048222596251815 -0.13508795925708525 -0.13786718858595048 -0.4249341504167134 -0.055620992902868364 0.07123250490463837 0.2892186573268985 -0.04513865760439428 -0.1652699862249667 -0.4375794274304295 -0.26771102201486946 -0.18464272291859737 -0.04975808783222526 0.08834212816794401 0.3085305145061219 -0.22145284780867214 0.26884000593995877 -0.35095858137541924 0.32361811548229685 -0.023727772535776084 -0.11273946742460489 -0.42202968984440486 -0.47039713906954556 -0.08240142945176913 -0.06573191491293982 -0.26620999846113214 0.028370572228578136 -0.23020365281984256 -0.28148265279008544 -0.3022277044220895 0.36377827852959904 -0.04218009538896197 0.4222348564579436 0.3014622429742873 0.0994025079211001 -0.40852745078786384 -0.10625489788962018 0.08699060441261977 0.449339598355344 0.030111522307744297 0.1159381613325845 0.3099946959658126 0.044091104325078734 0.15112260602450572 -0.38831854598770715 -0.44989548415986663 0.0240347399854388 0.3689608155570207 0.2560908719152714 0.18943388097744376 -0.1416436193314458 0.11322277330327732 -0.45486001954916916 0.044432591040142626 0.4429895922488245 0.24795188270417992 -0.35906237298803373 -0.3089178751351369 -0.18388482632945985 0.2661919076620197 -0.10618925729799297 -0.3598394739799491 -0.00223133806621885 0.31702503046789593 0.1312863548262841 -0.2307473010370208 -0.1533624907498186 -0.005282025609906472 0.0014021698400459694 -0.41308053257144617 -0.06635818689384099 -0.06120068584981039 0.5005634706830305 
0.4721250936892314 -0.19505313878646238 0.044158282717141936 0.25414597247399817 0.013269967545529287 0.25347980707374773 0.020424815068825524 0.15757299210441203 -0.45322879761248286 -0.23063323389993823 0.06476787249967482 -0.16518214557767394 0.1930133307678525 0.49003203785797617 0.3495142356826762 -0.37379530168935976 0.21837700561301404 -0.14980211070347987 -0.25798807559862563 -0.21173676664105176 -0.49878842267018586 0.017678294694561565 0.2982191392837359 0.4373117542223456 -0.4749723378238222 -0.4644571164473307 -0.4659507733442677 -0.0354729558561373 0.4187920702343233 0.1706977097890671 0.011325355434947006 -0.0888437250166831 -0.5037193235855798 -0.4532749313515312 -0.2380419886605327 0.4509827423738099 0.40567187020339895 0.38940565387728215 0.4528878528249048 -0.38923983642112026 -8.783860647273209E-4 0.45686105930595017 0.022016131202799098 0.19804494819963328 0.4098738917662625 0.12115390209423192 -0.2009626429544039 -0.5018897248369617 -0.43176081088749996 -0.3108492527074249 0.3091150574618354 -0.5053280879982738 0.2622727971787847 0.2464878180937807 -0.06817042441790314 0.5086536926050482 0.4124089479164656 0.036178033964447784 -0.42918689865417425 -0.0325232316994976 -0.4397255485286679 0.2677972883530352 0.06530964639232718 -0.32311005456552594 0.4592841406521919 -0.015036570401779517 -0.18850551992530504 0.1503092156114067 -0.1020057388096233 -0.3749838511609654 0.3442104500571606 -0.1369064217849897 -0.4078043412818456 0.19503797900848086 -0.1731826086120774 -0.21034712954838583 -0.17792741112207144 0.41269099261399206 -0.24678288092534553 0.3180235719866185 
0.03614359312384378 -0.1261233623476479 0.1407291948356583 0.26780009645077363 0.04284250663216269 -0.2185851785158956 -0.16125950217374496 0.24057535708661834 -0.2150612964461391 -0.39727226071211513 -0.26757512393220756 -0.40580543410064784 0.042213761541063356 0.18215854462397865 0.10706516886628199 -0.08536976447846516 -0.48787144366537954 -0.11381663577871198 -0.3678552603020779 0.17032928390456797 0.37704672138057505 0.35081369764069414 -0.5282074569471564 0.2351640433644928 -0.42400055516236945 -0.4539464204575785 0.17772468245290513 0.3157035511272247 -0.37088076239050943 -0.27396207005131407 0.4829096584911 -0.17800349176195301 -0.06737627576916332 0.31456731282604244 -0.6036616546216906 -0.328159270889857 -0.24347401117858555 0.19912058470201716 0.2858433835164096 0.14684842107596777 -0.4369910932523823 0.03586028711787494 -0.06399789399063169 0.5309221179902666 0.26209752457387314 0.24839615717924587 0.03002087401540321 -0.3391734324137186 -0.4628045337654121 0.06598931230114567 -0.38530546216244216 -0.259770175936734 -0.26438637315050506 0.0026434824651700725 0.21393600424712444 -0.29837848163727204 0.5039259792620755 -0.3489861712928186 -0.15375732824841132 -0.2528224561854984 0.41084071727052757 0.20093722030501368 0.3054919945663221 0.18335518931785116 0.4273248827177616 0.03451136879759012 -0.17371780277200452 -0.5535291087730906 0.06774766553407757 -0.04242241281418761 0.3728190083598014 -0.06700147135904808 0.37564100474632706 -0.19275187151055082 0.25310900239574513 -0.15058191081629932 0.36661533983132183 0.6473813082411122 -0.15425001663440036 -0.2258011764926686 
-0.20360805432127518 0.43739255986958303 -0.11566705385480996 0.29481127130611906 -0.434371641221536 -0.48333680932995454 -0.30294176037213594 -0.344169012259877 -0.45315116396593 0.3981113675648378 -0.4218551195310547 0.09734610979587625 -0.4416119947905051 0.4665510032538899 -0.03218675953028074 0.15227446852599616 0.09822432629419332 -0.3188442107317226 -0.13038130776944962 -0.07742894032591001 0.43902540281716385 -0.31449898371862123 -0.19319192820196163 0.45019900331860974 -0.253388104352251 -0.28223315792171705 0.006884215456875739 -0.04603820245765684 0.08545310498549198 0.12901368374405792 0.32695935825382255 -0.3407011699229673 -0.19895846385849952 0.4268478296908701 0.3338016648338319 0.22507036579444845 0.08978884608964553 -0.2877127335082352 -0.15785584340963404 -0.22465835760659117 -0.4795961430680706 0.34139213175844324 -0.3622311828210174 -0.37383361484020056 -0.10934335381962537 0.4185647205176476 0.07220800298960665 -0.3623898734858065 0.1101491285038022 -0.5003390633032598 0.06660925398537905 -0.1153001253537441 -0.29057115617862644 0.4644718921927307 0.4434297110754167 0.15417740056004478 0.15368911164838758 0.07575935348076297 0.38940647426501296 0.333999801667508 0.44157832644756184 0.20279045725025951 -0.15484926871157 0.1836268667363549 0.27065524233404914 -0.014630046185293046 -0.37194495209105183 -0.37818110769522234 -0.22127214770158093 -0.4453070150510665 0.4437738260892147 -0.21809369395636324 -0.1418480097456743 -0.03620157217583069 0.3163289702804276 0.4754211884846207 0.15955654247764306 0.1789613751728293 -0.48297446578567493 -0.25960727032040426 
0.22298184918307962 -0.12397897283182571 -0.0804011178974971 0.2838988986643493 0.4380758112813853 -0.3534334098926571 0.40699474868363406 -0.4326180123063846 0.4871266215433419 0.16923936020221161 0.1947093987136762 0.10023412403169908 0.1888644105268844 0.2759396855591739 0.00321704487356244 0.35467129817590703 0.016039382648813147 -0.16746141885546015 0.43332632446605235 0.3020102056226136 0.25634601377734045 -0.48008538457959377 0.3798881957597815 0.22699457540638676 0.32242314728107035 0.21808447178061202 -0.002978706220606425 0.01315594915295333 -0.1978510599929265 -0.045458989886410145 -0.43803665675561404 0.22550202763775 -0.40550248430761565 -0.4520482082395332 -0.46183010899924415 0.0555132354992265 -0.033444757514137335 0.30366517472444016 0.3940834826717491 -0.09366798547870049 0.4219296918000863 0.07855772193378043 -0.27808672522494454 0.01985401755459389 0.035176276224417505 0.028431472790729218 0.12882925058124842 -0.006446895653645323 0.2984839142935601 0.1358414521772552 0.4824363693600583 -0.3512757396949649 -0.4343988852165525 0.44354605060041113 0.19674956827363596 -0.2065134125620584 -0.029325627521032262 -0.46392723315790196 0.06539339354297413 -0.176899650311366 -0.03854471958108586 0.3770410127151238 0.11708546235967604 0.312916661962877 -0.2663973978025466 0.12487991136783291 0.3895729493762452 -0.43985863604298586 0.3977939821029316 -0.16118609369182463 -0.25397242668020764 0.24187759582282028 0.23121412936870023 0.4222175831132708 0.47527937862510355 0.07468586516314976 0.1528038097314004 0.1828644941155922 0.1623986070514818 0.19983069246971957 
0.3995701762108643 -0.4218651189681888 -0.020671467253353004 -0.3239997728374243 -0.368520457401846 -0.2524868042728413 -0.0997457395773439 -0.020257395622175434 -0.4742257039964306 0.20081715807714062 0.08847985631940469 0.0441299446828568 -0.2000190785915621 0.049374667970278896 0.4187361359898484 -0.35217105185913256 -0.3468926299087106 -0.27739444853089634 0.3227127497066651 0.25339806850072844 -0.3338225668856859 -0.17056351692262062 -0.10294668618676905 -0.24805172878377046 -0.239330813629408 0.3345246195508379 -0.023076103054817887 0.46067721963442865 0.06461980697456138 -0.3350787804184845 -0.1679542498366161 -0.012556954392219266 0.4394788362688685 -0.2885609394711366 0.2485283499566352 0.25330218389686854 -0.019637611122414578 -0.05612937719698852 0.022534197170686943 0.046942363400123255 0.018181507529771435 0.02033622990499051 0.31075245770497584 -0.025798598363797942 0.024187588110948344 0.3384247234602513 -0.14214676470419751 -0.43863145058448727 0.3457985304276875 -0.05057810440433674 -0.1474597915559538 -0.42727588673672623 -0.11286054222857322 0.136804347049292 0.051514009349513334 0.310780369240958 -0.3114478071036084 -0.2536899555276817 -0.14539517070251895 -0.2180553318651598 -0.1436023122551967 0.04727863425123302 0.21452735187599759 0.13083368640595294 0.447796620264892 -0.4964116226545029 -0.3788434327338033 -0.3267749240469159 -0.27547706471797806 0.33739865990975826 -0.08708099038096295 0.1906412457804485 -0.34391427900445015 0.1800402837745514 0.33683798181541935 -0.11118283331071332 -0.32589466910554143 0.42177830145120443 0.10396799216136687 -0.4321875555759035 
0.4584096356785161 0.09580503058322742 -0.3316019766861551 0.10328541584043227 -0.030153265582350985 0.2617038689726692 0.09569908045382769 0.2964546700988271 0.035630921645565916 -0.11024293277832331 0.18063619022397748 -0.4854680127088703 -0.45989141358319385 0.18985355101296342 0.42416131153665315 0.31391726984146817 -0.3228482907083018 0.17738590618369643 -0.4138522214540794 0.41520507294136355 -0.22004385414969507 0.023407927461600586 0.2930231269922655 -0.01794059156649941 -0.04015707909345001 0.39745762318078026 0.09840191129443743 0.14527153748007604 0.157730638789503 -0.42116718031253564 0.47001578536507505 0.10882315483614136 0.24026722768824682 -0.4142605572676368 0.40768311564239645 -0.023464329828586927 0.45718056359649073 -0.0483841290966206 -0.21524395353737913 -0.35410698082505354 -0.08277363364483781 0.06406856563254781 0.04942794924590177 -0.2701151491320435 -0.2628167473249552 0.17423801508951775 -0.3775203392816746 0.48822301757180186 0.17166469219388336 0.28304636867657096 0.18448812138706105 0.1760435074346831 0.34108788404231516 0.11566075810528742 0.05821661937613354 0.051212867388107264 0.14095983582801586 0.30663952798807015 0.060850768534081334 -0.4793834035189336 -0.46228836856761424 -0.2643887734752409 -0.4740603385755928 -0.44868579608749504 -0.2653682629509039 -0.3230310495387537 -0.3236522304610986 -0.4757959930631962 -0.37398036791082045 0.05694555764799136 0.16721700048992683 0.16584826459476654 -0.4514984139040831 -0.3524319576927566 0.41188506554585547 0.05836688740058649 -0.41447959119421773 0.46937220624369824 0.2539008942792407 0.49781631183880015 
-0.4390073183566859 -0.013340140953317838 -0.31378386369352634 0.1387137078394504 -0.4348428017105094 0.222123331212749 0.3376323697846048 -0.01476709301627283 -0.2955176152363534 0.0806129876612263 -0.33324623652110386 -0.18924869314671186 0.07561263549832223 0.23675187549152288 -0.0605013640966347 0.4259610604435682 0.24454410438885557 0.411469369654562 0.3234082651147136 0.1450040510132912 -0.1482145064334511 -0.357042091380265 0.26722744605959603 0.09680988674251872 0.5233183870226803 0.3399137233275625 0.17871638654505453 -0.10493088287084712 -0.09302898600312146 0.3487104007010107 -0.49791107611831625 -0.029248530923302183 0.24931029222625806 -0.16027623207543099 0.35195171418969284 -0.466653791317665 -0.2689783923911044 0.20935480581758287 -0.26486438612856894 -0.28726706584991774 0.46057857127212937 0.39200153658422043 0.11112474298701014 -0.40392207028789673 -0.013004744143507847 -0.011006231598664639 -0.27371171811395256 -0.030162182005464288 -0.0828767451275179 -0.2149672424191354 -0.07222323138646006 -0.35369175553385584 0.133966859844372 0.2880656101902287 -0.00999350291678511 -0.12358375183472914 0.16456907621035788 -0.2525069528764782 0.43861586258597607 -0.10560335866665534 -0.41061259728154814 -0.4275185421536356 0.1964350435945456 0.3227676648438361 0.47181715787264095 0.1732247688170928 -0.22621704735587972 0.40683541074924445 0.14499703561038754 0.09740521407181936 0.040847235617332556 0.49305934368789367 0.4092313521580437 0.41566671451340453 0.19721417171642044 -0.447901428819492 -0.5260586788878095 -0.44444187065045876 0.2557517664382942 -0.2048729398005066 
-0.1216988299350727 0.3521327136969292 -0.3279935242775445 0.2568710732145626 0.07755651415808851 -0.10077910532268144 0.3197742876169335 0.36913842618457576 -0.3035082262812948 0.09195719064380391 0.31188617268971996 -0.30971780801787085 0.296597126760169 0.2667369686182865 0.46177729335907197 0.43036955210206995 0.1574414031077108 -0.3010688409028321 0.20206577286657953 -0.456895833545386 -0.2009374222753172 0.4306330434580166 -0.1441617693897578 0.09979023559547248 0.33293016021857114 0.3304072480654897 -0.44646403016625935 -0.4695805073915057 0.20896783911958677 -0.028716803802895624 0.4445487220813985 -0.10688646298791732 0.26201718635035615 -0.3998230545038718 0.2072634627692338 -0.3088419248300076 -0.1316378032526958 0.20407513845022446 -0.22988560688905038 -0.1376904970588574 -0.3579060599378076 0.12007478720041428 0.4402166514404161 -0.23563830048697446 0.3475437204808465 0.15555587288658532 0.29492362618823825 -0.15552894805714143 -0.4412174843043609 0.4443668492433882 0.08868752759574779 -0.06798717945301555 0.20350113742805404 -0.38902649531699485 -0.3170310037042347 0.48751173974414763 0.3582693722905644 -0.0682231954043968 0.2483470733386543 0.20790757879310112 0.4532024435398638 0.2256472268223305 -0.010482077530114067 0.025297870782808467 -0.27489619644598895 0.2612770474533907 0.05157539417647724 -0.17424683668121574 -0.31165594362742144 0.19608514272790314 -0.010196303024150187 -0.048182880007407815 -0.4155702091438183 -0.4166458598419564 0.32428213040667214 -0.21896312430883266 -0.11595539337424557 -0.0761197063318384 -0.08408706883473085 -0.028263659202403608 
0.49926786972584575 -0.3127563329498 -0.07029762702015845 0.27163032583253566 0.35314575871154885 -0.258534855998684 0.2567768610847991 0.19122571158105578 -0.0501237551934722 0.5602324174939769 0.3643947498706879 0.008581159674064996 0.1890690406385087 -0.5055830175013976 0.04226783165025647 -0.0446934086946477 -0.013179971736131727 0.2796671291169827 0.04299658564095423 0.10758749098838825 0.1870897326618242 0.3409749789418621 -0.29572139489214766 0.12502097220118888 0.504874244490898 -0.4593856139433689 -0.5666605245994314 0.0614271883104404 0.21536277868792228 -0.16153245631269747 0.6361701891776887 -0.020885868660000643 0.07233706393648048 -0.23444932858518772 0.07614603623160728 0.36184359521230036 0.09756580739451896 0.46245930149789927 0.3613712972877512 -0.25192382705297584 0.41298549204825613 -0.17383333840739107 -0.32925537161784973 0.5268215859820483 0.16990928053303006 -0.24907070651121951 -0.2345827376857525 -0.42538582010372084 0.35069205795542013 0.5319196012986513 0.2353845204820354 -0.07844537862047361 -0.18540542230820858 0.3080227928129467 0.06203619140294488 0.16728166929954577 0.4522546561252887 0.5972364505963997 0.42361968671643224 0.2006168117832729 -0.27530448577797234 -0.05653531492482958 0.07987544265709842 -0.3961334124061414 -0.46356317998744556 0.3249844539352937 0.13143234201181644 -0.3588252135435324 0.2501542279266797 -0.4451273682486362 -0.07985921603824875 -0.2714291795085406 -0.5117427662583316 0.11952407442346638 -0.38668152750190615 0.6722780775367362 0.20122573988506062 0.47529768409426776 -0.3320573143291179 -0.5317342628081992 
